family,0.00096542883,-0.0060366243,0.011518754,-0.021574672,-0.021753615,0.0148645565,-0.017673032,-0.017689392,-0.006031703,0.012118652,0.039361756,-0.017299555,0.010272225,-0.01443778,-0.011947417,0.0005595613,0.02457454,-0.028427966,0.024584068,-0.0294558,0.046035267,-0.008860439,0.025011515,0.04291893,0.042163093,-0.02443284,0.06477417,-0.020271037,0.017591741,-0.032985333,-0.0049454533,-0.017313784,0.01670318,-0.017878698,-0.042913985,0.0010432957,-0.031418048,-0.026346786,0.053977493,-0.05134382,-0.012991821,0.03370739,0.0056779874,0.016925598,-0.05950878,0.033588037,-0.038838826,-0.04917955,-0.036278773,-0.015992545,0.041511778,0.043800253,0.014250039,-0.048507757,-0.032790914,0.022282513,0.046014793,-0.022638323,0.029048573,-0.017116534,0.005093845,-0.0118810525,-0.015498878,-0.030194325,0.010710682,-0.017989079,0.0040515936,-0.026711259,0.016526224,0.010712266,0.02916342,-0.028071705,-0.075824484,0.014160283,0.0126472665,-0.030086592,-0.043688193,-0.026798313,-0.0373873,-0.019544583,-0.0625911,0.022204287,0.02383507,-0.009534315,0.015360216,0.025569305,0.00095406536,0.016309291,-0.0055231224,0.009100803,0.020227654,-0.0029489398,-0.042632375,0.048241336,0.02201793,-0.016173642,-0.032249913,0.012596564,-0.03165062,0.05790925,0.006056863,-0.005161044,-0.015758548,0.011776648,0.00057768985,-0.0016564088,0.027875818,-0.024703212,0.026070273,0.07032241,0.0053870343,-0.004092852,-0.030476468,0.051252108,0.001858668,-0.010329178,0.020909352,0.031421088,-0.04385733,0.030411882,-0.0022182553,0.023206566,0.014691052,-0.04655263,-0.014916859,-0.0016894973,-0.049809787,0.033130016,-0.058878504,-0.005584953,-0.0024375713,0.020929042,0.009567206,-0.03158984,0.019365435,0.029948276,-0.0182973,0.019714307,0.033271708,-0.05414563,-0.036122683,0.044452824,-0.0048212744,-0.027483912,0.011448426,0.020739343,-0.039339155,0.028684722,0.0047777337,0.006626684,-0.028293183,0.056748707,0.033638574,0.051749494,-0.03042921,-0.022436336,-0.067788556,0.05194626,-0.03376859,0.06952541,0.013524696,0.019639516,0.0004922178,-0.009009761,0.007184223,-0.009369477,-0.00636457,-0.026671618,0.053315714,-0.04245412,0.04725963,0.02112175,0.004878428,-0.043785572,0.02528333,-0.03766814,0.024951948,-0.0099364845,0.008050733,0.03500182,-0.023403531,-0.0021716645,-0.06237611,0.008884635,-0.073567376,-0.019976156,-0.048690777,0.025437865,-0.04181561,0.04391622,0.022344552,0.0017831724,0.0056911265,0.010672399,-0.008906968,0.022888748,0.0415793,-0.017953759,-0.026880518,-0.056023806,0.033438925,0.04870247,0.044614792,0.013564651,0.002832944,0.020629937,-0.015769381,-0.024818417,0.023069777,0.020150831,0.0373561,0.018763602,-0.026094746,0.010039989,0.0167302,0.011218043,0.042688042,-0.017723627,-0.015603879,-0.047809344,-0.029347807,-0.036736548,-0.03458482,-0.0012312741,-0.010880689,0.013058197,0.010323709,-0.0026267068,0.026516771,0.053417336,-0.0013899589,-0.05982944,-0.003170737,-0.009099396,-0.04450324,-0.009413702,-0.058931474,0.03172402,0.045410957,-0.03346595,0.046890724,-0.004449703,0.0596409,-0.034826454,0.03851262,-0.022324543,-0.044533662,-0.02725941,-0.028584674,-0.039924502,-0.0016592982,0.0032018286,0.027220955,0.013735182,-0.03172348,-0.031833418,-0.010558508,0.02257017,0.02362989,-0.007826955,0.008912383,0.021058967,-0.033661082,-0.00753617,0.084574625,0.009300497,0.017051872,-0.03340258,0.011979157,0.0167177,0.014923605,-0.0058646,0.009445045,-0.010519819,-0.022599773,0.02250892,0.053150475,-0.05000759,0.011860024,0.044579197,-0.0089772735,-0.021823775,-0.016753957,-0.02547617,0.0014948363,-0.0054703006,0.006743501,0.0032569687,-0.02306868,-0.00834553,-0.0008984886,-0.030450035,-0.011145008,-0.022579718,-0.033581946,-0.003545878,-0.0077706017,-0.003846303,-0.024363974,-0.0023261996
disaster,-0.019610872,0.022590687,0.016696705,-0.04730081,-0.0053393943,0.0005577152,0.008983798,0.027211465,0.019543253,0.009103281,0.009570027,-0.045831613,-0.00094107015,0.0015701798,-0.022769911,-0.013772437,-0.025046298,0.035541493,0.029058903,-0.02148787,-0.010762979,0.033800878,0.051924396,-0.01340049,-0.011674853,0.01932447,-0.007299563,0.0019959977,-0.008547815,-0.030010449,-0.026042774,0.054373752,-0.008088224,0.009061279,0.01454024,-0.0041327616,0.007104828,0.0049563996,0.023187662,0.008799264,-0.03670985,-0.046904765,0.029441329,-0.048386037,0.0044982797,-0.036176793,0.030255057,-0.035753727,-0.049723007,0.039133497,-0.047602482,0.041060623,0.023991432,0.00013574642,-0.005748148,0.0038193048,0.0038768712,-0.041396584,0.025146628,0.026668081,0.01855278,-0.02415753,-0.032356482,-0.0091984,-0.03642039,0.01009317,-0.027253428,0.01766044,-0.0047981567,0.020222692,0.03948965,0.028317377,0.024754107,-0.00015876659,-0.004390697,0.008175246,0.016433882,-0.0038240037,-0.005864247,0.028238416,-0.02411128,-0.0037290754,0.03388535,-0.053538375,0.004800037,0.047655575,0.02420412,0.061794482,-0.034922183,-0.039436195,0.020270782,-0.018647816,-0.036456034,0.025826275,-0.015700212,0.030614734,-0.015750783,-0.0503639,-0.015692266,0.005680991,-0.02776549,0.03325591,-0.0346951,0.017495196,-0.027178975,0.04346297,0.012595395,0.04863372,-0.040697284,0.047704387,0.00010722348,-0.023750156,-0.030846037,-0.02059031,0.014565982,0.028594516,-0.021897277,0.0010411821,-0.03168216,0.025160866,-0.019588007,-0.03312307,-0.024237184,0.009814427,-0.019126557,0.026663968,0.020283325,0.01496213,0.04488549,0.04382045,-0.009944617,0.020963166,-0.0026888403,0.02400022,0.026102161,-0.004549168,-0.007841301,0.03183228,-0.013183207,-0.011336681,-0.009968507,-0.023274625,-0.002319657,-0.06451759,-0.047661096,-0.008570342,-0.043455858,-0.027725628,-0.013573742,0.027720563,-0.05108696,-0.007960998,-0.016558206,0.01669212,-0.027678344,-0.04521489,0.01381972,0.050766844,0.007022333,0.008947226,0.03285913,0.0172512,-0.017144525,0.04208401,-0.043004192,-0.0027001293,-0.019008277,-0.043967493,0.015125287,0.0062642507,-0.011487241,0.047219478,-0.016177436,-0.010795165,0.035166718,0.03646795,-0.011228367,0.046130877,0.015666127,-0.024709871,-0.043172054,0.033720363,-0.034818046,-0.02210687,-0.018348347,0.0007441249,-0.014663553,-0.00013240564,-0.009526349,0.04223206,0.0010269504,-0.010787967,-0.02386464,0.028831622,0.030682942,0.06315519,0.0007515549,0.040257987,0.030760048,0.03370389,-0.021085786,0.07120753,-0.014570262,-0.039506998,-0.02471182,-0.026132505,0.043956395,-0.039474785,0.003393138,0.011860421,-0.035452392,0.007164648,-0.0059065972,-0.0034111335,-0.0044132876,-0.028917337,-0.048941627,0.044678416,0.031864673,-0.033905067,-0.04361575,-0.006913069,0.010521805,-0.048304252,0.051705427,-0.0041845236,-0.022656735,0.017642302,-0.013601505,-0.019337786,0.012614325,-0.0021116745,0.017104702,-0.010881605,-0.018055342,0.020722633,0.009216649,-0.014967862,0.04095255,-0.015035679,-0.015935391,0.027527524,0.026640804,-0.038354483,-0.0007641791,-0.0481943,-0.0338732,0.029157642,0.012270786,0.037177484,0.014610114,-0.031233288,-0.0149850715,-0.0041810498,0.0139027415,-0.0031344383,-0.015843326,0.009401238,-0.030118419,-0.035097446,0.020053936,0.0037674368,-0.045769665,0.0061771446,-0.034663852,0.0030545387,0.019579342,-0.0068560597,-0.04346538,-0.04898169,-0.0011832968,-0.025283815,-0.05392906,0.038433537,-0.01864997,-0.0103185335,0.0051926137,-0.033829022,0.017865887,0.022224672,-0.03548009,0.0062962705,-0.012303019,-0.030951135,-0.003982933,-0.03468604,-0.005707362,-0.043076325,-0.037413735,-0.018700942,-0.01496231,0.016199883,0.025146406,0.018986553,0.013390195,0.02137404,0.03723382,0.042626422,0.023382602,-0.03960317
protect,0.0027389813,0.030711086,0.0055566058,0.024599612,-0.0026200952,-0.027369324,0.028520891,-0.023312954,-0.022455556,-0.025299555,0.0048694396,-0.018679585,-0.031092504,-0.017051497,-0.013511271,-0.00078664866,0.010478596,0.033946846,-0.00047695308,-0.00046358845,-0.0154961785,-0.0102231605,-0.02951163,-0.025071537,0.0005716134,0.0017630517,-0.029067472,-0.03513814,0.020845475,0.0012959428,0.023203406,0.031062137,-0.020461429,0.021618543,0.0054565496,0.012905898,0.013208071,-0.007484807,0.0077919383,-0.027352354,0.018090146,0.04983943,-0.019358607,-0.004520019,0.03260361,0.06413826,-0.012608055,0.03658045,0.028184732,0.04251069,-0.017495895,0.007248423,-0.069284156,-0.02140223,-0.039183117,0.0030145014,0.030223776,-0.020553585,-0.03831229,0.011371653,-0.02950241,-0.027732579,-0.009169552,-0.015684186,-0.019152464,-0.02422052,-0.02586116,0.0119025605,0.025493067,0.023041153,-0.005026569,0.038858123,-0.0115826,-0.03821396,-0.03751858,-0.03671516,-0.019376216,-0.03507995,0.04922703,0.014462625,0.017961947,-0.0074889776,0.021456959,-0.012910721,0.019876037,-0.028820112,-0.0130710825,0.037668273,-0.0007307104,0.013809574,-0.037943244,-0.02381714,0.025465688,-0.015903587,0.035928417,-0.019050313,-0.02607607,-0.032102454,-0.011543985,0.011251786,-0.015998255,-0.036061402,0.02820143,-0.014906035,-0.025462007,0.046670165,0.016531605,-0.049264055,0.011771269,0.03459342,0.050254952,-0.03135909,-0.031761143,0.02509995,-0.012573075,-0.02629229,-0.051032845,0.018385319,-0.034449376,0.026692947,0.024584902,-0.013381419,0.022173587,-0.025549533,0.012988832,-0.025577137,-0.009251807,0.03262196,-0.021042183,-0.03226149,0.025531232,0.001576298,-0.025354471,-0.032555565,-0.020271547,-0.03881834,-0.009494275,-0.01549104,-0.006825288,0.05934744,0.03989848,-0.024907723,-0.03571217,0.029772896,-0.0102041345,-0.029532952,0.0040111295,0.037073378,0.011222691,0.02508175,-0.010878585,-0.04289393,0.008974842,-0.03736926,-0.024085779,-0.036789242,-0.003584393,-0.030771779,0.028210979,0.0018295979,-0.025599942,-0.010993528,-0.02458703,0.0027859868,0.017750718,0.0021414515,0.029521748,-0.04338522,-0.0101268655,0.014107113,0.019243365,-0.00041197054,0.00069747365,0.010785398,0.0540027,0.018404355,0.028089825,-0.02085746,-0.01759307,-0.02193388,0.024411604,0.0012543037,-0.018893937,-0.0054188687,0.004349733,0.043415904,-0.033443328,-0.047533244,-0.03329576,-0.022850737,0.033299755,-0.029074455,-0.026812037,0.025825916,-0.020533439,0.035560004,-0.00020480306,0.028443918,-0.03393645,-0.03836449,0.01593113,-0.03912717,-0.0056093936,-0.012156421,-0.034592967,-0.05652635,0.030930392,-0.012573263,0.015331851,-0.019116485,0.05043127,-0.027418265,-0.03701726,-0.003650772,0.03251636,0.0026960107,-0.026880814,-0.0032393725,-0.018369567,0.01974486,0.035553824,0.015359909,0.039582808,0.007362993,-0.00070952816,-0.026056055,-0.03163012,-0.04063684,-0.016720787,-0.015286951,0.0027839432,-0.03614313,0.03693198,0.019353963,-0.014463554,0.016004555,-0.0077960244,0.015986014,0.0032296062,0.016563699,0.04220835,-0.005885159,-0.045497827,-0.02294303,-0.018476812,-0.0071152165,0.013965744,0.018174062,0.053190187,0.041298512,-0.011957618,-0.0050972747,0.000449477,-0.064261556,0.026045905,0.021836594,-0.027364451,-0.043879647,0.008974777,0.019570863,-0.017168669,-0.028849542,-0.012195015,0.050623905,-0.028893659,0.02287514,-0.0329017,0.01251904,0.023341259,-0.030811507,0.038081158,0.0005849301,-0.020121047,0.010542417,-0.019580424,-0.022523053,0.036201626,-0.03015768,0.03210814,0.027162876,-0.012992951,-0.0033562384,-0.020929487,0.0046793055,-0.013473592,0.030381085,-0.0017649202,0.0105009535,0.015369139,0.037508074,-0.014636264,-0.03252268,-0.004687163,-0.0050652744,-0.012042317,-0.007155011,-0.03324789,0.004472708,0.02305889,-0.050063044
back,0.016709588,0.0010124004,0.034827728,-0.013820306,-0.031258848,0.012219729,0.0050340383,0.018138794,-0.0031829774,-0.013738574,0.02217428,0.026642602,0.03357061,-0.05701795,0.013280869,0.07143547,0.065811746,0.021167083,0.014113627,-0.040172346,0.056109913,-0.034350093,0.053325195,-0.003933885,-0.034090567,-0.005086044,0.040112313,-0.03490185,0.012716804,0.02660098,-0.018027455,0.035237353,0.03537608,-0.031082453,-0.037306614,0.034169063,-0.008243141,0.0077590127,0.02639424,-0.010638418,0.0038637414,0.0067218062,0.017021654,-0.0041815015,0.017463202,-0.0055206167,-0.04107244,0.0061699683,0.029714093,0.041927744,0.012487215,0.013363686,0.03950246,-0.0189376,0.00849812,0.015814498,0.0013473339,-0.0015646694,0.03281688,0.038099647,0.02606045,0.01755021,0.040968586,0.004787509,-0.017348843,0.020167442,-0.0051057297,0.055569608,-0.029832013,0.029601213,-0.012534238,0.05590819,0.028156202,-0.052168675,0.023593487,0.0033464734,0.012319035,0.013156152,0.013183437,-0.029621085,-0.0254254,-0.0038201932,0.022540536,-0.044521667,-0.0008773837,-0.016296433,-0.0034771697,-0.009949391,0.016650412,-0.015381829,0.02502619,-0.059122067,-0.0024634486,0.009593646,0.030682024,0.018670758,-0.04479924,0.01478653,-0.028799633,0.022070412,-0.018454717,-0.015176799,0.027707197,0.06740277,-0.035873193,-0.018492006,0.011063828,0.018715013,0.03573836,0.02138413,-0.013890795,0.017130205,-0.032288883,-0.020755168,0.0006897057,0.017511258,0.03839808,0.032766387,-0.043634888,-0.0029763395,0.04901033,-0.0032368205,0.009284284,-0.021550281,-0.014064393,0.023040798,0.00824539,-0.0010527738,-0.03782318,0.003814008,0.03968804,-0.0056196535,0.05297949,0.021836663,-0.025367374,-0.0115712,-0.0012444421,-0.04040026,-0.007519885,0.010478341,-0.0018758966,-0.0021198243,0.035705052,0.004425452,0.004373121,0.010433349,-0.046306152,-0.008897723,0.0030855096,0.041297093,-0.0121576665,0.01758645,-0.032861516,-0.011212647,-0.027233126,-0.055831738,0.0044374587,-0.018433392,-0.037489463,-0.023476904,0.028314173,-0.005484027,0.009088046,-0.012634928,-0.007755952,0.008108204,-0.021904454,0.027325423,-0.030481957,0.010504233,0.008830741,0.019051597,-0.014240995,-0.026354587,0.001549882,0.012533086,0.00061147066,-0.005275882,0.03036015,-0.0063160616,-0.007438015,0.004146097,0.008137779,0.026108272,-0.015968468,-0.01417376,-0.037037976,0.022758743,0.021143021,0.0034776866,0.022329241,-0.011632882,-0.008937988,-0.014573458,0.019422764,0.017942395,-0.051183894,-0.027954947,0.0013404124,0.033803515,-0.022228634,0.035294067,-0.01563041,-0.02791461,0.07911227,0.011580068,-0.0174188,-0.018704792,0.021458207,-0.05611261,-0.04713341,-0.00021594937,-0.01615247,-0.014516002,0.012182174,-0.015977843,0.03859268,0.014601411,0.025465107,0.0018035752,-0.046231374,0.020495726,-0.0640697,-0.004301493,0.009598205,0.0077336663,-0.011949637,-0.002794497,0.0039983112,0.045564134,-0.0077138487,-0.039468016,-0.026119757,0.0010815043,-0.050863005,0.0038796088,0.026921637,0.022004524,0.011049161,-0.014924789,0.04686379,0.0425252,0.036140133,0.01156648,-0.014770728,0.0070992387,-0.019690888,0.015145441,-0.043804593,0.012023073,-0.08053716,0.025344523,-0.0005936964,0.032502595,0.0013918183,-0.033731423,-0.0028999238,-0.0074848817,0.00736764,0.038417872,0.025869928,0.028824,0.042107355,-0.055626992,0.028996404,-0.028738152,0.04999534,-0.04774713,0.0037451906,0.00063947274,0.033120744,0.013791731,0.009496403,0.00024706734,0.0056852777,-0.0086255185,0.037055604,0.022658529,0.00027131848,0.048564292,-0.04039417,0.060520653,0.005971475,0.022020811,0.0030565085,0.020478413,0.01354064,0.05518805,-0.039161988,0.022660943,0.070172325,-0.02486718,-0.019480297,-0.013581621,-0.018318877,-0.024467854,0.007713864,-0.036001734,0.025179846,0.00890283
taking,-0.0082404,-0.003418973,0.010446809,-0.0065781483,0.017951459,0.041707255,0.04800937,-0.0072473395,0.01893605,-0.030267246,0.010786361,-0.0059863753,0.0009021131,0.00066431094,-0.021359596,-0.031425938,0.020499604,-0.0024184482,0.013730217,0.008915905,0.043712646,0.010671755,0.032514714,0.008103502,-0.02324635,-0.0069385795,0.056107722,-0.0047911657,0.016743813,0.012832554,0.0055049104,-0.047104266,0.06363003,0.05966557,-0.0028905848,-0.0318278,0.038309276,0.003861118,-0.009788435,0.0071559055,0.037830878,-0.035552885,-0.016995238,0.0059119244,0.018172,-0.014192175,0.021187276,-0.015985457,-0.02085053,-0.053962477,0.02633038,-0.014945312,0.014489879,-0.029733693,0.0013035324,-0.021242453,-0.03379534,-0.043195937,0.025766073,-0.022652915,-0.028777407,0.076307155,-0.0093636615,-0.019016612,-0.0009547786,-0.021323597,0.023503328,0.023729257,0.0013996708,0.0419326,0.041667774,-0.012382668,0.009303025,0.019614594,-0.04201587,-0.0041001006,0.007332147,-0.057974137,0.021007549,0.02569866,0.025312003,-0.021228703,-0.028983742,0.020832006,-0.025639832,-0.020850075,-0.004119953,0.03627599,-0.05277238,-0.0047255773,0.063520454,0.013328212,-0.06455188,-0.0032378284,-0.051330965,-0.018418254,-0.010433465,0.027520074,0.002132485,0.00033092307,-0.036707602,-0.04847699,-0.011123963,-0.016121723,-0.04146324,-0.0028131462,-0.028112022,-0.08009778,-0.054801147,0.029502252,0.018882403,0.034038898,-0.011770898,-0.006740458,0.043511137,0.0072576194,-0.028874097,-0.0016666239,0.014408828,0.003986643,0.00076438085,0.007704229,-0.026686657,-0.015896637,0.048943296,0.06669105,-0.002147384,0.010606754,-0.03447205,0.018584553,-0.016787415,-0.034454063,0.0042633587,-0.03032689,-0.026708972,-0.02941896,0.029547263,0.00915638,-0.01744698,0.006348401,-0.008527683,-0.029377602,-0.008108007,-0.041539025,0.04047026,0.063634194,0.055851735,-0.040669113,-0.010157465,-0.0032632034,0.032615248,-0.026746145,-0.03243671,-0.006630665,0.019958643,0.005341889,-0.04820812,-0.027185783,0.024706487,0.014599226,0.0009010122,0.026107604,-0.039216913,-0.016176522,-0.041649535,0.0043666726,0.008675166,0.037213434,-0.02897833,-0.048567113,0.06607637,-0.0056041926,-0.023768554,0.028285213,0.0057141692,0.018674118,-0.0020165946,-0.025334658,0.008817082,-0.045792058,-0.06733227,-0.018673202,-0.022485403,-0.0035392207,0.0151972985,0.0030711663,0.0034241173,0.04262202,0.04379084,-0.0020500077,-0.010147987,0.007491929,-0.011223441,-0.037346687,0.049260333,-0.018296838,0.0025292912,-0.034306146,0.08358509,0.036764592,-0.001839834,0.021045351,0.041481428,0.053728677,0.03245138,-0.037101015,-0.0007967232,-0.027097035,0.018672625,-0.015759356,-0.00035162966,0.029911973,0.0029263985,-0.0047896244,-0.018886263,0.03372811,-0.03168021,0.024759714,0.03481809,0.033941843,-0.0310354,0.0039754836,-0.0033179023,0.009800323,-0.023038402,0.037618518,0.02192882,-0.0206206,0.0023226612,-0.04461005,0.02134641,-0.016179655,0.027276475,-0.014557726,-0.0215589,-0.010452735,0.011061544,0.00030183312,0.009122592,-0.056679398,0.07216784,-0.023600675,-0.020774415,0.026881156,-0.004965898,0.015528899,-0.027028486,0.000111975285,-0.005229054,0.02806992,0.0044936766,-0.007939325,-0.07122838,-0.008001626,0.013669551,-0.004696211,-0.024225108,0.0014712648,0.042940624,0.01169529,-0.02023176,0.018994436,-0.023982435,0.02389642,0.017496435,-0.0039299116,-0.0020850778,0.020394403,-0.010230584,-0.03257648,0.005534265,0.024170415,0.018082194,-0.006829254,-0.011436643,0.007905764,-0.033382107,0.0005910063,-0.015092465,-0.008239385,0.041977987,0.0059817117,0.014848825,-0.02601892,0.027183985,0.033984154,-0.011137308,-0.018165799,-0.049814258,0.0033430923,-0.046625275,0.043113336,0.0008914168,0.010856089,-0.020877104,-0.037888795,0.024211863,0.030576618,0.0018811828,0.026141096
minimum,0.03488462,0.014684339,-0.022800377,-0.03569328,-0.023454435,0.0064514643,-0.03847054,0.032086257,-0.025043419,-0.011844403,0.0007471803,-0.011180397,0.016313532,0.047255237,0.056027293,0.025746807,-0.014910032,-0.02029973,-0.0352248,0.016964529,0.026129413,-0.03259818,0.014833819,-0.009047398,0.03619921,0.018209161,0.04556878,0.013848154,0.016055014,0.0060146684,0.010400262,-0.008963645,-0.014251441,0.023345161,-0.021168342,-0.017402738,-0.013181418,0.028224995,-0.04198204,0.019317111,-0.008291131,0.034973677,-0.028590925,0.017659377,-0.013785498,-0.00027228816,-0.0069086747,-0.031750932,0.017548207,-0.043565243,-0.024227409,-0.0115223,0.01688653,0.038881686,-0.017479753,0.0457896,-0.03546483,-0.047715545,0.014556842,0.02967444,0.0007207054,0.03799486,-0.0471254,-0.0074033677,-0.0011650153,-0.036067445,0.02008183,0.015337494,0.06294814,-0.042700876,-0.0033562032,0.03387882,-0.005782309,0.052521434,-0.057739627,-0.024344707,0.05917143,-0.017522724,0.009457133,-0.029368155,0.0149183525,0.015518392,-0.03674909,0.00637652,0.031763084,0.00011684507,-0.010474252,0.004242909,0.033273045,-0.02038826,0.0076556336,-0.07158573,-0.005452838,0.034663558,0.0349537,-0.029265517,-0.017322022,0.031015456,-0.03117246,-0.04534023,-0.027154597,0.0035131827,0.034166932,0.02901636,-0.029987708,0.03399129,-0.035472725,-0.03448945,0.017829303,0.02213834,0.024462085,-0.02167791,-0.0551228,-0.006339478,0.021903189,0.0058244774,-9.555826e-05,0.027229218,0.013299675,0.04187359,0.036439575,-0.056820434,0.03527,0.0129782995,-0.02645575,0.039838236,0.02697307,-0.034351937,0.013996906,-0.022036528,0.023837551,-0.018275911,0.036559895,-0.03434621,-0.032934193,0.042585135,0.012013175,-0.0032469502,-0.03594536,0.044737685,0.0035986982,-0.0090638995,0.030436585,-0.018250758,-0.0010068123,-0.04369702,-0.043254368,-0.019830953,0.0071836812,0.05507194,0.004465734,-0.02361384,-0.014505156,-0.0009512391,-0.02397994,0.0058929687,0.0012539667,0.03084918,-0.015991874,-0.014913012,0.0024966649,-0.017720109,0.013424274,0.0058229803,0.00771198,0.011312557,0.027269455,0.00015752894,0.051861625,0.027645081,0.010195523,-0.02305814,0.01608143,-0.020380197,-0.047556102,-0.0054158717,-0.021620052,-0.04528931,0.025345623,-0.024747198,0.005341406,0.01543881,0.047508955,-0.044824578,0.0136190355,0.036859546,-0.013284249,-0.020517904,-0.026656106,0.025885317,-0.027386276,-0.002835518,-0.03634866,-0.015695117,-0.029980436,0.0033673432,0.00560621,-0.0027136041,0.00015563982,0.01957691,-0.02508758,0.045349002,-0.04255819,-0.032014336,-0.022572557,-0.04036771,-0.01890604,-0.016162327,-0.0078488905,0.004221762,0.02801367,-0.02485561,0.0047514876,-0.02699771,-0.007076422,0.028625239,0.0369801,0.0030977908,-0.022045663,0.014306556,-0.06309994,-0.033658348,-0.009021233,-0.0011575554,0.0036594116,-0.028566202,0.0006028113,0.022055218,0.0214477,0.014562464,-0.0192492,0.015750388,0.035098173,0.04835903,-0.024061535,0.0015577724,-0.0026052021,-0.016405828,0.032347064,-0.028427677,0.03033785,-0.030226609,0.037835144,0.02852118,0.042063735,0.02714007,0.045824755,0.009847508,0.0048483987,-0.009423335,0.04981748,-0.008726356,0.03858321,-0.007399452,0.011822243,-0.026165705,0.019152056,0.014694691,-0.0066445316,-0.02346391,-0.044993043,-0.0051653064,-0.026652507,-0.023072157,-0.024256816,0.013493404,0.01971243,0.012478654,-0.045942962,-0.016865104,-0.0016029754,0.03222524,-0.041486397,-0.0065826685,0.0154001005,-0.023842964,-0.015317797,-0.035824835,-0.06161129,-0.06608088,-0.057810187,0.070646934,-0.011950077,0.028627258,-0.010931703,-0.0033190183,-0.0144081805,0.052332204,-0.0044295765,0.025081757,-0.03251426,-0.026421996,0.033554424,0.00463449,-0.0001503001,0.053288434,0.0458424,0.046368737,0.00077822385,0.0018989485
decision,-0.012240319,-0.005856096,0.037579406,-0.025221324,0.021301365,0.0030044785,0.011819298,0.034830537,-0.0013767228,0.008758597,-0.013068469,0.05784183,0.009911379,0.011096237,0.020557718,-0.0068338565,0.062189277,-0.020692578,0.04189459,-0.03524827,0.020617498,0.01857606,0.026907427,0.01784895,-0.020688377,0.06432777,0.06983139,0.015763681,0.0043289755,-0.023890836,-0.043180857,-0.045037616,0.001161342,-0.029419096,-0.024888068,-0.050132707,-0.034972522,0.024520218,0.00056224066,-0.043002166,-0.049267583,-0.059607316,-0.031996615,-0.017198853,-0.052536543,-0.03588041,-0.042017013,-0.02091018,0.021700127,-0.024290798,0.012784526,0.019707382,0.04446893,0.04948308,0.050110698,-0.038923595,-0.03937581,0.003450733,0.06847425,-0.0654798,0.034760274,0.08234067,-0.019691277,-0.029128095,0.013896753,0.002543171,0.032642093,0.005880866,0.044158906,0.008257932,0.03360023,-0.0038056779,0.016821578,-0.0092298165,-0.051352087,0.018991819,0.052021608,0.008905506,-0.026441298,0.0056995736,-0.02958451,0.022217525,-0.007085332,-0.02100091,-0.052519556,0.012693942,-0.007539842,-0.02702379,-0.0866252,0.036154203,0.030625176,0.009529155,0.013939602,0.031077167,0.009694049,0.037990052,-0.03068202,-0.022956485,-0.046605747,-0.038369488,0.016039692,-0.010627602,-0.04399884,0.044433653,-0.027544245,0.048725065,-0.021324363,0.009038158,-0.038302053,-0.034350336,0.008467386,-0.00029852972,0.015140022,0.020925706,0.009786728,0.035550788,0.024941564,-0.009894557,0.006603841,-0.051039305,0.0038591218,0.006228426,-0.02104213,-0.022820044,0.044141844,0.049292687,0.008408377,-0.002770757,0.011314964,0.027623469,-0.024199907,0.008217448,0.06599063,-0.05987732,-0.035199653,0.05135123,0.019500824,0.0022471205,-0.055226132,0.007088732,-0.02967698,0.025640475,0.0769828,0.023873603,0.0039882925,0.00864879,0.033130553,-0.008535029,0.0055836686,0.0043295156,0.01564641,-0.02269145,-0.0468906,0.028107893,0.005390427,0.01580133,-0.046933487,-0.047606535,0.018631449,0.027079493,0.011083868,-0.013115845,-0.035090722,0.009661205,0.06814429,-0.016587155,0.01127937,0.02929156,-0.021557914,-0.057211976,0.05634715,-0.00618185,0.013908429,0.018060362,-0.021049447,-0.018787086,0.035364963,-0.035974428,0.023998007,-0.009667835,-0.015577729,0.04455474,0.039573815,-0.020043066,-0.0032307685,0.009179359,0.0025335893,-0.0053134374,-0.010968207,0.032271054,0.043531984,0.028014982,-0.042000018,-0.023597099,-0.007824425,0.055570006,-0.008970677,-0.028106414,0.0053259293,-0.025407517,-0.039152533,0.008269978,-0.031304445,0.009986134,0.034829475,0.032963824,0.0076496233,0.015566415,0.017481737,-0.0040212027,-0.0054683345,0.018211821,0.021456955,0.023111472,0.0065183276,-0.0064235646,0.028866522,-0.0076282113,0.04745695,0.031873174,-0.06221494,-0.055307075,-0.0027434146,-0.051690243,0.035705574,0.010101637,0.022095999,-0.018805698,-0.015323122,-0.0066014747,-0.00950542,-0.04585946,-0.02651698,-0.030274425,-0.027875565,0.027135804,-0.017365586,0.020345215,-0.009028583,0.032994226,0.011595047,-0.0072439457,0.04429943,0.027650088,-0.0002528528,-0.07445163,0.015147608,0.01164702,-0.033216104,0.04458576,0.0026068136,0.014195733,0.022898216,-0.018998012,0.004878138,0.05346588,0.046221703,-0.03156796,-0.014884097,0.04638783,0.015167866,0.034743324,0.025106,-0.011474983,-0.006124354,0.02264966,-0.025747862,-0.0069601666,0.024890063,-0.046774734,-0.024063962,0.0015748753,0.027912978,0.044459343,-0.028218599,-0.025946485,-0.009273014,-0.016600126,-0.009646908,0.050497085,0.0009158167,-0.028458672,0.029670563,-0.0038361056,-0.01405419,0.036733534,-0.017725976,0.033335306,-0.056800876,-0.01146436,0.01198024,-0.008401827,-0.023661809,0.014526902,-0.012369681,-0.045340415,0.054663584,-0.04777207,0.035020337,0.031362318
mongolia,0.01808014,0.0013920619,0.026016306,0.0024698863,-0.031367417,-0.009839435,-0.005839834,-0.041290104,0.018581832,0.041198015,-0.014430675,-0.040103618,0.039176505,-0.018415373,0.0680063,-0.018880771,0.0073675984,-0.020750869,0.0084359255,0.028585477,0.05977615,-0.020239675,0.05925962,0.02699481,-0.008261446,-0.040452655,-0.015991949,-0.023538342,0.00038507514,-0.04493944,-0.020155001,0.03159609,-0.041921064,-0.021451306,0.0325138,0.040619873,0.033618543,0.045830887,0.030151207,0.0086374935,0.021629324,0.033477116,0.058315262,0.021842899,-0.051665697,-0.02337282,0.022863949,0.012163879,-0.061763104,0.0007251587,0.027368842,0.04661462,-0.011756234,-0.03369922,0.013026014,-0.019363426,0.03175252,0.012280965,-0.012979365,0.02795585,0.0050373203,0.01828148,-0.027020624,-0.005029121,-0.0038414348,0.014172138,0.016668282,-0.007498039,-0.02391158,0.004126082,-0.004756098,0.02348121,0.005971683,-0.048479516,0.030550996,-0.029939435,-0.011258425,0.04163211,0.002620277,0.025592655,0.021268556,0.018987622,0.00040861903,0.00031070615,0.056143582,-0.0010217677,0.032187015,-0.0070609977,0.020004503,-0.026582783,-0.028019648,0.032861944,-0.048087116,-0.03008125,-0.013246454,0.020583494,-0.015755113,0.0041217883,0.008821581,-0.012585972,-0.005932645,-0.04359737,0.032877285,0.012287729,-0.049621087,-0.01623555,0.05169263,-0.044684518,0.0063604396,0.06382131,0.0013573851,0.010252375,0.024225222,0.017226845,-0.006284414,0.034875773,-0.029395374,0.018353406,-0.027980503,0.011370418,0.0059848004,0.031172566,-0.028317247,0.018435473,-0.05379902,0.034173686,-0.027043665,0.019773249,-0.013768319,0.029818261,0.009489795,0.04108425,-0.015288393,-0.0030881194,-0.0029358403,0.0056873546,0.0090905065,0.014499444,-0.035747685,-0.019882826,-0.023481274,-0.047774073,0.05973146,-0.013752809,-0.06309237,-0.023189101,-0.030572968,-0.049822766,-0.01819727,0.0077458695,0.03659134,0.025146896,0.026149862,0.06362611,-0.040153857,-0.0615518,0.0069201854,0.045556277,-0.008171321,0.0040680068,0.01969461,0.06458045,0.03089496,-0.039290037,-0.017874662,0.0015840329,0.022526614,-0.040357735,-0.035811607,-0.0043776883,0.0020644735,0.017815098,0.014087412,0.0041363267,-0.050612856,-0.049158692,0.031775057,-0.032326482,0.033021007,-0.009802155,0.06369907,0.01584509,0.0078031933,-0.030830132,0.016220294,-0.0019908424,0.0095003145,0.0039081355,-0.012550546,0.037097763,-0.007047848,-0.0082617905,-0.01939952,0.037045486,0.031422246,-0.013995416,-0.023730258,-0.0031465646,-0.027852362,0.012742754,0.029266179,-0.015739465,0.058391903,-0.010434426,-0.029620077,0.025508039,-0.008516319,-0.043392543,0.020068446,0.023941234,0.07466062,-0.04047889,0.011587817,0.009387767,-0.044657744,-0.020033807,0.004212511,0.005262044,0.008438275,-0.05810709,-0.014335538,0.0264943,-0.03908992,-0.024710005,-0.005907432,0.026179023,-0.016191801,-0.06698775,-0.021315057,-0.009021077,-0.026066149,-0.06236719,-0.023509137,0.009833249,-0.05809838,-0.006399636,-0.020437062,0.012150887,-0.0155841755,-0.014701543,0.0007864829,0.029264437,0.03137072,-0.046381805,-0.026247524,-0.0058467872,-0.02903884,0.028540399,-0.00090302195,-0.023252526,0.0014899583,-0.02506609,0.0017571492,0.008754715,0.013815953,-0.04133081,-0.010713429,0.019659646,0.011676463,0.02989475,0.022641784,0.017102564,0.020647425,-0.015161128,0.048949383,0.0019666853,0.027418999,-0.048597187,0.0018671015,-0.029571041,-0.027827943,0.0025215761,-0.013626929,0.021349465,-0.027173713,-0.014381801,0.018969154,-0.017776791,-0.0010607885,-0.02084485,-0.026538443,0.043593135,-0.0031695736,-0.026758622,-0.009848198,-0.013082016,-0.032064263,0.02139642,0.010071006,-0.03772778,0.046006322,-0.03047731,-0.04091772,-0.011568234,0.029016308,0.028496105,0.027013259,-0.019475367,0.027465051,-0.012183315
stopped,0.06332735,0.021955125,0.04231712,-0.036312878,-0.017587442,-0.003372938,-0.044953905,0.0069443076,0.0018706836,-0.0150522785,0.02161053,-0.05480477,-0.012459974,0.0310941,-0.016430063,0.015755195,0.04095262,-0.007127944,0.022067891,-0.0021352435,0.056058813,-0.03583449,0.0005637239,-0.0026053835,0.022554362,-0.056089163,-0.009203042,-0.032748103,0.011224251,-0.01968943,-0.022010397,-0.016533667,0.025024127,-0.043111175,0.029375728,0.009342614,7.087929e-05,-0.009089512,-0.008354058,0.02520213,-0.019254755,-0.00504205,-0.003524829,0.04434268,-0.0117223775,0.030598665,-0.01243428,0.028869528,0.009642943,0.008721162,0.021243291,0.027078826,0.026462663,-0.031293597,0.017163849,0.023306977,0.015510167,-0.029780384,0.040756855,0.018436562,0.015652623,-0.054105315,0.016160853,-0.0024983264,-0.02336336,-0.0101342155,-0.010010859,-0.025580252,-0.022597728,-0.009998298,0.0129519785,0.027359657,0.007752831,-0.013694914,-0.023340723,-0.012284353,0.010401273,0.023940377,-0.036302023,0.021391237,0.03503743,0.021230683,-0.012797046,-0.04795922,0.04523022,0.01203874,0.037973437,0.029063655,-0.029984662,0.014161089,-0.0488493,0.035340678,-0.047508925,0.0064919903,-0.011439076,0.012448222,0.027861897,0.022613397,-0.0068354644,0.053013507,-0.039361626,0.0043066503,0.009181853,-0.017426718,0.005000493,0.052503508,0.056975536,-0.043753844,0.01882427,-0.015976423,0.025657583,-0.025035061,0.02962962,0.0020222042,0.013514656,-0.03697116,-0.016577296,0.02251568,-0.033658374,0.0042508403,0.058914915,0.012726312,0.0053796894,-0.003827534,-0.051849708,0.048766933,-0.0074755577,0.0203081,-0.022691822,0.056145635,-0.008244295,0.022844383,-0.058021512,0.029316353,-0.04089779,-0.027726145,-0.006631163,0.00463939,0.0092500765,0.021118054,-0.0031561602,0.014581951,0.043047737,0.023509223,-0.06543223,0.0076415995,-0.038909808,-0.00067845813,-0.035701603,0.041464344,-0.0034321605,0.061240267,0.017433079,0.042687465,-0.026792256,-0.024234233,0.036706872,0.014806326,0.0073630023,0.033204976,-0.010780582,-0.030027766,0.013172183,0.052056637,0.05518076,0.009424145,-0.025056928,-0.034370486,0.006154374,-0.026844027,-0.015033207,0.0018334762,-0.04304358,-0.006828692,-0.04745692,-0.024779959,-0.0023637481,0.02675363,0.009088223,0.009627206,-0.031178188,0.025188949,0.0094885565,-0.05018405,0.013597894,-0.029333193,-0.025757704,0.006479327,-0.010736538,0.057061005,-0.014361697,-0.014602945,-0.0038474428,-0.031031288,0.031784333,-0.004763736,0.009148814,0.016860636,-0.020252937,0.012354611,-0.008240452,0.021317394,0.029606601,-0.017648123,0.025528984,-0.03698604,-0.06775643,-0.061085127,-0.00086022407,0.013320305,0.027154978,0.0045389486,0.005028615,0.0044255187,-0.026751857,0.034681484,0.038098585,0.014422911,0.025984237,0.0035066567,-0.06110539,-0.0107735535,-0.03698646,0.013626068,0.018740673,0.020238232,0.0033648908,-0.054007027,0.025956072,0.048785135,0.04666412,-0.05605452,-0.0065152366,0.019211076,-0.051274043,-0.005057052,-0.0032190904,0.014826611,0.04047738,-0.017986022,0.031979907,0.034222703,-0.039911333,-0.017189607,0.009918239,0.008664719,-0.0030538319,0.001352843,0.026430283,-0.024543263,0.00042712604,-0.012909779,-0.0015966226,0.026818411,-0.031869374,-0.025403818,-0.07164194,0.01653021,0.0022065162,-0.021460216,0.008482499,0.004103235,0.02307996,-0.0022855278,0.024999456,0.014364732,-0.03574881,-0.016143274,-0.01375713,0.03296012,0.031859197,-0.018624477,0.025690315,0.02549203,0.016052848,-0.03204595,0.02211867,0.017022314,0.009636095,0.020933777,-0.05712738,0.011930545,0.028471632,-0.030246494,0.024604607,-0.059642058,-0.024962645,-0.02000994,-0.046149887,-0.0542088,0.047843717,0.01372127,-0.0033218116,0.0077138194,0.018588781,-0.005959504,0.0042271754,-0.029388905,-0.032167163,0.035944466
based,-0.03967595,-0.018326564,0.027605599,0.02226845,-0.019976608,-0.009204873,0.01919647,0.015113259,-0.0144093,0.04001853,0.05931826,0.038591735,-0.01288322,-0.027497528,-0.022487335,0.0012403629,0.038339965,-0.052806564,-0.042067368,-0.029807195,0.0135257635,-0.034480926,0.028005512,0.040229347,-0.03427969,-0.008791324,-0.014404389,-0.016312778,0.003658909,0.01392513,0.009115319,-0.06515678,0.056414504,0.0008769617,0.012332984,0.0409513,-0.0084017115,-0.026948607,-0.040560115,-0.0030054785,0.028455611,-0.01758767,-0.03384465,0.028305443,-0.003996292,0.016290082,0.023727262,-0.015282952,-0.0038616385,-0.017803637,0.016165046,0.037362877,-0.0021160687,0.033340223,-0.009327322,-0.002376138,-0.043210223,-0.030793477,0.006441515,0.011968762,-0.0035130472,-0.014208816,0.015483354,0.02984034,-0.04441432,-0.04997592,-0.008188724,-0.04045464,-0.006972183,0.030550947,-0.021163592,-0.022229282,-0.038332585,0.008528967,0.0030192288,-0.019387066,0.019809544,-0.015298979,0.03458947,-0.030314865,0.030546155,-0.041565172,0.005144153,0.033949405,0.017543113,0.013985201,0.024418091,-0.032800063,-0.0094161155,-0.025875632,-0.01799249,-0.049964417,0.015940707,-0.04808346,0.020803563,0.024320671,0.0044931383,-0.0038080486,-0.016652962,0.007487774,0.012104343,0.0136248125,-0.0035690416,-0.019200206,-0.015280578,-0.034904443,0.027343577,0.0173828,-0.03132145,0.014668572,-0.00475486,0.022854332,-0.024525564,0.010632048,-0.002950816,0.002040185,-0.005736254,-0.0046751783,0.0062646107,-0.04396501,0.0004781416,0.023322016,0.032153644,0.021376543,0.03032352,0.018363621,0.011674339,-0.0154399555,-0.017069733,-0.018354785,-0.009606967,0.0073446184,-0.028686918,-0.02321176,0.034566093,0.008421135,0.00433305,-0.052319475,-0.04417589,0.029160459,-0.027779268,-0.036330592,-0.0010897602,0.070387974,-0.04173689,0.0038535455,-0.06419011,-0.032666292,0.031349782,0.043576702,0.014921614,0.045640316,-0.04379837,-0.0061055706,0.05772978,0.031836357,-0.024881305,-0.08137756,0.022957454,-0.042484008,0.052442145,-0.020731911,-0.019268967,-0.07149241,0.012355376,-0.014762086,0.040726293,-0.027517844,-0.026432697,0.032553114,0.051454943,0.018317515,0.018332552,0.002916969,0.0045407936,0.02358306,0.009048975,-0.015821746,0.020031475,-0.0023769252,0.009308681,0.007755308,-0.0040274486,5.5002423e-05,0.019771112,-0.016067393,0.015107656,0.0018404399,0.021804828,0.011744712,0.008621845,-0.03150667,0.00587955,-0.025795259,0.0028272818,0.03353974,0.0316684,0.0026603562,-0.012674971,0.0013769892,-0.011565802,0.035201762,0.037551463,0.032180514,-0.015169331,0.015862342,-0.032558426,0.022138586,-0.015964285,-0.03346982,0.0453291,0.042066477,-0.0015687747,-0.0051298053,0.0070752213,-0.016115068,0.030544298,-0.01168874,-0.016783249,0.06883342,0.036852375,0.00117484,0.011653417,-0.0121746855,0.015477677,-0.048480235,0.03748438,-0.018199451,-0.004212356,-0.0041218014,-0.021296354,0.03725079,-0.011852778,-0.045768313,0.027379423,-0.010685385,0.034576613,0.01243027,0.00086375925,0.012119696,0.059689313,-0.007013207,-0.005886391,0.024141751,-0.021022178,0.0076350328,0.0032241128,0.0070245834,0.037950005,-0.042234976,-0.0018125036,-0.013951221,0.035171416,0.0024808282,-0.0148888845,-0.013402669,-0.027025571,-0.0031053594,0.024225187,-0.027989553,0.019977674,0.010989047,-0.0020673072,0.00063006836,0.038217876,-0.014141265,0.0051123,0.025003953,-0.018319035,-0.051106043,-0.02003685,-0.010889844,-0.012844104,0.048531864,0.0036735947,-0.021882327,0.057245143,0.0291648,-0.0026646878,0.048411313,-0.03558887,-0.017086862,0.013687877,0.014816253,-0.020688238,-0.0309024,0.0005352267,-0.010908986,-0.010813724,0.017092416,0.025944227,-0.0010538709,-0.015903732,-0.0036004488,-0.013108293,0.012803758,-0.012254642,-0.031824887,0.0054940833,-0.030189173
begins,-0.006473332,-0.0007769767,0.007502856,0.0345173,-0.0023443997,0.012443854,0.034336478,0.038153876,-0.021037485,-0.030128177,0.010644916,0.021838512,-0.028110115,-0.024753995,-0.022624277,0.021123197,0.018536195,0.037901912,0.01756829,-0.009482989,0.030371068,0.012341902,0.029274229,0.035199385,0.012671242,-0.04859965,0.032638624,-0.018756878,-0.006872082,0.02604125,0.04431445,-0.012234229,-0.02822618,0.007292635,-0.04741732,-0.07372506,-0.01725446,-0.02062105,-0.00841943,0.006504353,-0.033782937,-0.010710461,-0.03854478,0.02587242,0.0027628457,-0.023183217,-0.032086764,0.0014751009,0.007797368,-0.015781805,0.029257879,-0.025366804,-0.012384786,0.037348717,-0.0048687984,0.025427744,-0.029660689,-0.011021266,0.01790329,-0.028072214,0.029035706,-0.059197444,-0.034037806,-0.013561692,0.014929263,0.018432936,-0.03512837,-0.010672811,0.016760241,-0.0085273525,-0.026485749,0.029192105,0.026541889,-0.034257475,-0.035101477,0.016477387,-0.028610228,-0.02154684,-0.005061672,-0.044256467,-0.040992796,0.0266285,0.01704271,0.040635776,0.04862408,0.010485766,0.031265035,0.020111412,0.053476386,-0.003676856,-0.010774995,0.014048064,-0.0102887405,-0.024759393,-0.0023527383,-0.022726277,0.028099911,-0.026582561,0.03991371,-0.01908116,0.026314147,-0.039834954,-0.025743466,-0.0008188977,-0.013606125,-0.015605524,-0.020490797,0.049581077,0.008521239,0.0133493515,-0.05670013,0.035360407,0.01716265,0.02505219,0.0030699295,-0.004807554,-0.00019088721,-0.028019706,-0.0081015155,-0.0017856468,-0.03178401,-0.02344731,-0.04260319,-0.016863197,0.022164218,-0.039358035,-0.0013969798,-0.044615224,-0.026299166,-0.0264574,-0.0012427878,0.01378816,0.01020923,0.013470197,-0.013220844,-0.0082500735,0.0026982552,-0.020888899,-0.0002654088,-0.03827688,0.030141598,0.026379256,-0.023509962,-0.034792952,-0.0143535165,0.0036833116,-0.01774501,0.042127013,0.009067325,-0.0052557536,0.015929619,-0.009843533,-0.020909198,-0.030011207,-0.021826584,0.038032677,0.04607838,0.040703937,-0.004955964,0.033039816,0.007755999,-0.037922587,0.018560909,0.040543273,0.022191195,-0.011591946,-0.047860336,-0.06511313,0.057554115,-0.018895106,0.033409428,0.010976809,-0.00392725,0.009519843,-0.00630714,-0.007575625,-0.02588079,-0.013938353,-0.043717373,-0.029483588,-0.0075917626,0.024263317,-0.0032301892,-0.0088154115,-0.04671171,-0.0321595,-0.06191162,-0.020727508,0.01231562,-0.02307563,0.009215656,-0.00163469,-0.035927262,-0.0011704739,-0.009480681,-0.0041984064,0.041415345,0.010356457,0.03085104,-0.020951191,-0.018200902,-0.0055775824,0.02053543,0.0077143093,0.03574991,0.009832735,-0.0056828074,-0.037323546,-0.03162484,-0.016735934,0.03859262,-0.02037655,0.037004754,0.027045647,0.037414048,-0.022957226,-0.0033608642,0.027501967,-0.006290379,0.013198967,-0.012577707,-0.011482899,-0.011068623,-0.027414333,-0.023480132,0.022626312,-0.00045971805,-0.029430665,-0.0033370948,-0.030168155,-0.005482269,0.015336612,0.041501176,-0.0026086688,0.021120016,0.009017657,0.020958401,0.031765644,-0.017049674,-0.012970856,-0.004989505,0.070704535,0.060233157,-0.023430973,0.032392357,0.011051992,0.05360589,-0.0113785565,0.018814676,-0.012467472,-0.0041362015,-0.010560027,-0.031828653,0.012370238,0.02340651,0.05318497,0.023779072,-0.028073687,-0.02548937,-0.027948758,0.007830817,0.017093716,0.02969809,-0.011084275,0.003817977,-0.026080206,-0.026726527,-0.05686891,-0.025650522,0.032696865,-0.020173699,0.0024136752,-0.026048735,-0.031571973,-0.051042248,-0.025295565,-0.0026034198,-0.019862156,0.031659465,-0.0144794835,-0.0072438694,-0.0074946196,-0.013565567,0.008427741,-0.004631472,-0.032030895,-0.011959166,0.033655006,-0.012515381,0.024002908,-0.021173416,-0.06757733,0.014122041,-0.021902967,0.024374489,0.025558647,-0.020309221,0.03734671,0.014064636,-0.020484067
stations,0.025708282,-0.010028478,-0.004489916,-0.04646169,0.008380771,0.01300785,-0.031378742,0.054678895,-0.036808446,0.006272576,-0.0045025344,0.0064653736,0.01274927,-0.024718562,0.00500406,-0.003587811,-0.032535266,0.04760314,-0.0076603154,0.016615195,0.0018726117,-0.024594536,0.023143686,-0.030862158,-0.023986075,-0.0023254058,0.041025028,0.0068786405,-0.0032168087,0.01980871,0.001109774,-0.023500647,0.006759621,-0.042517047,-0.053046018,-0.019185655,-0.04808986,0.04007669,0.009505354,-0.0135225905,-0.033666078,-0.03206813,-0.025305165,0.0063669216,0.0043529063,0.025438078,-0.02798922,-0.036560528,0.045925036,0.022900393,0.0665501,0.020683315,-0.03110534,0.009377906,-0.02509985,-0.016172688,0.03638246,0.0027215593,-0.007415701,0.018806571,-0.01509546,-0.016218048,0.049198363,-0.012317993,0.0026544197,0.01844218,0.019905284,-0.008562429,0.010227415,-0.0018577846,0.0069739167,0.04495277,0.011414348,0.0016866056,-0.032493934,-0.040956024,-0.0190411,0.041389067,-0.019995108,0.013546812,0.031106826,0.027545577,0.06934624,-0.019999836,0.028278936,0.010118369,0.014260754,0.026540503,-0.042071287,0.017382503,-0.05655664,0.0066113644,0.005714465,-0.0074838805,0.035628207,0.012475844,-0.03666513,0.0010774685,-0.025950836,-0.012953817,0.0188221,0.01225451,-0.023319514,-0.041751575,0.030510668,-0.020774126,-0.016409095,-0.03061491,0.053898677,-0.008377821,-0.025932062,0.018992852,-0.0025745013,0.034183376,-0.017502414,-0.002893211,-0.028819153,-0.01027806,0.0010875426,-0.017541835,0.055299066,-0.013152786,0.008122886,-0.029520983,-0.0016164494,0.06581008,0.0046029408,-0.018018154,-0.04191779,0.0248255,0.058326654,-0.0043420624,-0.013411447,0.003477524,-0.011116587,-0.04625958,0.005116718,-0.00012886747,0.043031774,-0.0009790381,-0.035565395,0.009174792,0.045229748,-0.015401422,-0.0034203178,0.026510498,-0.020016618,-0.023956658,-0.022797305,-0.0072736754,0.016109068,0.047506433,-0.0077061793,-0.0030499138,-0.042858332,-0.016377782,-0.045729175,0.063519426,-0.049450677,0.0029575028,0.0027569789,0.026162397,0.018441664,-0.023804704,0.028940247,-0.017102184,-0.0007793078,-0.015621018,0.047198985,0.0147240115,0.03026273,0.03468685,0.01646884,0.04020282,-0.03672906,0.007835969,0.013043156,0.016981669,-0.023454567,-0.023523524,-0.0267577,-0.015215076,0.007191271,-0.019499458,0.020508314,0.025818268,0.02247023,-0.025878401,-0.027860677,0.034406804,-0.04038455,0.032536488,-0.04375602,0.02024749,-0.0329676,0.016623983,-0.026589679,-0.008224419,0.004008512,-0.060105268,-0.026487993,-0.01652896,0.017952565,0.0021315035,-0.04148761,0.024657678,0.019213432,-0.033970132,0.02608966,0.016319122,0.0063966475,0.02863869,-0.03669773,0.017041883,-0.032821927,-0.03121901,0.033244893,-0.01221244,0.02874741,-0.035016745,-0.057513252,-0.010803826,0.011554714,-0.0090575665,-0.0127763245,0.0054034083,0.018055938,0.03062764,-0.021669658,0.0073217214,0.0065384717,-0.024626011,0.04899272,0.019063013,0.010367581,0.0034421717,-0.020222943,-0.024752306,-0.0052305693,-0.011685038,-0.036269125,0.04169468,0.051120684,-0.027733771,-0.028016984,-0.022914791,0.023377359,0.03412207,-0.0023776551,0.0028896623,0.019681547,0.04822114,0.005185036,0.0021937976,0.01339152,0.028151266,0.033506762,0.033529613,0.009473822,-0.026241286,0.015650576,-0.01910413,0.03787355,0.0045772353,0.06441851,-0.010819478,0.025307273,-0.026881317,0.014353425,-0.0215588,-0.015870556,0.006183392,0.00017306906,-0.0065276497,-0.0021453432,-0.034762796,0.011039683,0.03846836,-0.030418513,-0.013886396,0.014454286,-0.005082539,0.0074018287,-0.03407062,-0.008009413,0.026481334,-0.029537508,-0.027664505,-0.019454785,-0.017822925,-0.018927762,-0.055417035,-0.060337145,0.009349724,0.004808608,0.0042323745,0.016300146,0.012322111,0.0052197683,-0.066810206
shut,-0.012387988,-0.009812498,-0.01445884,0.031135274,0.012203978,-0.0033778634,0.004366706,-0.006098104,0.033982754,0.028901199,-0.03692089,0.011838535,-0.0024633722,-0.014046127,-0.020884432,0.0060820812,-0.011659108,-0.025227515,0.016019609,-0.013723418,-0.011145541,0.04798301,0.026732383,0.028863862,0.03072366,-0.0045417747,0.04593526,0.009786194,-0.01631934,-0.015646879,0.016598092,-0.007938291,-0.021568116,0.04168005,-0.009236753,-0.0007786802,0.01597009,-0.03713214,0.023902386,-0.02226805,-0.03158246,0.025930023,-0.003980139,-0.0033041572,0.043533135,-0.05565406,0.025744298,0.017877113,-0.016841415,-0.00944497,-0.032570105,0.012510492,0.023050705,-0.012358377,0.01315516,-0.029646857,0.006415122,-0.0038020893,0.003083462,-0.0060542272,-0.022843337,0.017964002,-0.057624824,-0.028989756,0.020812226,0.0037680154,-0.010985945,0.0369242,-0.023416508,0.012419389,0.02838562,0.0017739531,0.00064728607,0.08060673,-0.0078095077,0.016544042,0.038343295,-0.0029193286,-0.061257992,-0.005166931,0.05077903,-0.015569469,-0.005976931,-0.018990813,0.009466989,0.010778282,-0.014239586,0.0072559384,-0.046052486,0.01644602,0.01894092,-0.020548003,-0.005010596,0.008688148,0.012260453,-0.018261058,0.028653134,0.00671699,0.025955949,-0.010593189,0.0015392529,0.015292934,-0.0483308,0.04495517,-0.009283099,-0.003733677,-0.056501705,0.025866134,0.024161903,0.036012746,0.0075352076,0.0056168977,-0.038262967,-0.0386586,-0.0055688503,0.010589322,0.01671076,0.0023172423,0.007151413,-0.00372393,-0.022223331,0.015505417,0.006149902,0.020792568,-0.021695571,0.005614699,0.005465648,0.0046506785,0.011594818,-0.027445737,-0.011085218,0.008371249,0.0072055487,-0.009016135,0.00021829255,0.047563743,-0.037691902,0.010826919,-0.037278,0.0066524753,0.0013425575,0.034749005,0.0029945315,0.033440545,0.016129233,0.025398001,-0.03248097,0.018852478,-0.014970517,0.0069174315,0.006499185,-0.03305383,-0.024763484,-0.020707725,0.0017423977,-0.040228244,-0.006664373,-0.036064286,-0.01416483,0.012436985,0.025701787,0.008099922,0.008349426,0.019216113,0.003971652,-0.008221564,-0.018229028,-0.005397498,-0.0066019082,-0.03634967,-0.03086092,-0.016059527,0.016843641,0.023182906,0.0082794,-0.013337145,-0.021843221,-0.053079195,0.0144951185,-0.0133740865,0.0013960149,0.0029529438,0.013735045,0.017277181,0.0020285693,-0.046500795,0.023435494,0.006411459,0.054388132,-0.023666294,-0.0073628603,0.032555413,-0.024021972,0.0037046631,0.0036994445,0.02871594,0.0016808637,-0.01603625,0.04037518,0.045146693,0.013540745,0.0500274,-0.023908244,-0.030715989,0.06763738,0.004018872,0.026197584,0.019687152,0.025170758,-0.025627034,-0.067907155,-0.0077200565,0.014213053,-0.008258192,0.014314406,-0.0035326048,-0.026534583,0.03350353,-0.03408569,-0.02575909,-0.015634714,0.04590936,0.023133503,0.0029711442,-0.019690024,0.006292043,0.008690613,0.014621935,-0.0078062047,0.017680766,0.0034950094,0.025131732,-0.0012753878,-0.011870572,0.020545527,-0.0133540165,0.0158061,0.03313376,0.0028249165,-0.032630444,0.004397443,0.009970639,0.00080360443,-0.007996966,0.011867214,-0.05691436,-0.01765856,0.02404303,0.01775854,-0.03810743,-0.014936284,-0.038035624,-0.0041669435,0.021666393,0.014879232,0.008222118,0.0060769804,0.01246879,0.015655642,0.0075317333,-0.024367029,-0.0027918373,0.022675512,0.005189914,-0.07364703,-0.014580976,0.026315246,-0.04287318,-0.013661602,0.03274995,-0.02230248,-0.023361117,-0.02881992,-0.017800016,0.010214058,-0.01606902,-0.013673708,-0.0057032336,0.03209784,0.021869529,0.038397763,-0.014031041,-0.007694584,-0.016267456,-0.010542563,0.025220715,-0.0048123156,0.019415034,-0.015169314,0.012229214,0.017257825,-0.019668113,-0.0037731864,-0.011096315,-0.0036495267,-0.023332646,-0.04416981,0.028722528,0.046571765,0.033500724
luanda,0.00046744946,0.010158386,0.0091094375,-0.007834703,0.03236001,-0.010845726,0.012910385,-0.022113414,-0.011397736,-0.013861342,-0.010360317,0.040513277,0.033397734,-0.02682551,-0.02164491,0.0019170848,0.0086815925,-0.025845021,0.00435496,-0.018824005,0.0027165543,0.048832137,0.010210514,-0.029544242,0.010073901,0.035027433,0.01678894,-0.012212276,0.029087402,0.047062956,0.013294565,-0.009124951,-0.007915274,0.0096459435,0.013469672,0.030626329,0.050517887,0.0074452655,-0.015683351,0.0047591385,-0.005923774,0.047276665,-0.007269746,0.017746339,-0.040827885,-0.026546175,-0.019745747,-0.01976573,-0.03617134,-0.0054220785,-0.02230338,0.006784396,0.01617377,-0.01047893,-0.0186393,0.025292963,0.019118978,0.0042208354,0.022500057,0.02428741,-0.030472036,-0.010866485,-0.030380037,0.0354391,0.036058124,-0.03532593,-0.007477456,0.018963998,0.022656897,-0.03163533,-0.008283661,0.04307101,0.011403759,-0.035761774,0.027777879,0.013199424,-0.02381323,-0.03263811,0.06563848,0.008868581,0.036118813,-0.016445316,-0.06640286,-0.010818147,-0.032828316,-0.028928226,0.004516883,0.0145321395,-0.031812094,-0.016729139,0.0034709862,0.0002516335,0.009191719,0.015032171,-0.0012486349,-0.0068319114,-0.013542722,0.01810867,-0.0033059854,-0.034866836,-0.01799987,-0.0052893762,0.012354851,0.008864497,-0.00930286,0.01604835,-0.017587133,0.013141484,-0.005594053,-0.020090358,-0.0266617,0.019299703,0.018236885,0.047922764,0.012302922,-0.0024660432,-0.0036836297,-0.0008817484,-0.017630532,-0.012274814,-0.027971065,0.010589389,0.0263485,-0.016214516,-0.020498522,-0.028303906,-0.004824088,0.0293145,-0.014148664,-0.054212645,-0.008686014,-0.034254137,-0.019979876,-0.0019792283,0.012735769,-0.018690161,-0.025156194,-0.041236114,0.007391532,0.023858499,0.008822018,0.016594684,-0.0076069576,0.03488274,0.014147181,0.011808688,0.043228492,-0.01804485,0.0033427759,0.005044602,0.010446812,-0.011739645,-0.03428383,-0.060281686,0.015011838,-0.042836335,0.018046921,-0.024944197,-0.031042766,-0.0069484455,-0.018696008,0.020821398,0.009930117,0.015538161,-0.014316738,0.027784916,0.00928614,0.024125215,-0.061730612,0.011728167,-0.019910831,-0.0065197973,-0.050037052,0.016679563,-0.007799325,0.01098505,0.014053247,-0.009075502,0.039575215,0.0010643045,-0.00827992,0.023194704,0.00037140516,0.0006282999,0.051848285,0.011229723,0.042314515,-0.021489669,0.028419988,-0.037892256,0.025285982,-0.02642912,0.04465118,-0.014667087,-0.0026284952,-0.011648255,-0.0023686748,-0.031488433,0.03973383,-0.033584572,0.0312674,-0.043424617,0.015744772,0.04735567,-0.011640656,0.012447229,-0.014997277,0.010100747,0.01959194,0.019051982,-0.0071345675,0.020115878,0.021175401,-0.0052751894,0.00092156534,0.023754517,-0.044682045,-0.018905379,0.00090665236,0.031400073,-0.024143625,0.018707113,-0.0166892,0.015118807,0.0077522527,-0.0033368296,-0.030302774,-0.02926194,-0.010054752,-0.009563962,-0.049317803,-0.014922779,0.009768753,-0.0046055773,0.028267434,-0.0028640178,0.003267129,-0.03446916,-0.013937932,0.017696958,0.0051510883,-0.035941347,-0.048558757,-0.01080963,-0.029899536,-0.023774097,-0.032834865,-0.037258662,-0.036693603,-0.0036070934,-0.017071342,-0.030031487,-0.043248847,0.005338978,0.04542255,0.01031231,0.020339375,0.0076368195,0.014404881,-0.025680838,-0.018267976,-0.023367906,0.008996131,0.008585564,-0.02055554,-0.01116832,0.012947128,-0.020772127,0.0039526722,0.05943019,0.027618581,0.023763064,-0.018863102,-0.039434224,-0.015296882,-0.016898137,-0.031909652,-0.004338984,-0.006240056,0.0019096121,0.028726667,-0.057215534,0.02713851,-0.0044433083,0.02809922,0.021859651,0.030648008,-0.0023913314,-0.060016,-0.0046497793,-0.014390279,0.007867226,-0.025027327,-0.0041383365,-0.030858895,0.007775623,0.027500106,0.033868287,-0.011770727,0.055155285
selling,-0.017061876,-0.034745324,0.008743789,-0.010864001,-0.034142714,-0.001969588,0.054423053,-0.0023564536,-0.06871951,0.012312236,-0.02327015,0.021088734,-0.043334864,0.005374721,0.012560702,-0.022529954,0.059095122,0.0021027043,-0.028245596,0.03914631,0.018470144,-0.013458326,-0.011764732,0.040116448,0.0058442745,0.025011638,0.04526098,-0.024164066,-0.018870953,0.023668366,0.01929001,0.015291962,0.07591928,-0.029494742,-0.0024058342,0.0047030984,0.042072896,-0.026303645,0.011475631,0.018951012,-0.01816989,-0.03138943,-0.0178445,0.047267508,-0.078988254,-0.016136818,0.00901965,-0.006119759,-0.042512782,-0.048110973,-0.023800904,0.028090931,-0.008626137,0.012808847,0.015920483,-0.029803105,0.0018843639,-0.0145004755,-0.022124043,0.014143246,-0.04978172,0.019998202,-0.02134149,-0.024192166,0.019317161,0.025346017,-0.0025519605,-0.016187772,0.033208765,0.023328502,0.0005103409,0.053146463,-0.009099335,-0.08219102,-0.062836714,0.038585678,0.024545347,-0.048144966,0.03014867,0.03974538,0.024011128,-0.009306009,-0.056932714,0.023980664,0.0029997579,0.0044861184,0.028280301,0.042440258,-0.05488803,0.0057547833,0.025140552,0.01322505,0.0025811892,0.048199385,-0.022272272,-0.022111785,-0.012109055,-0.0026484248,-0.02017989,-0.06940242,-0.06292377,-0.03845265,-0.03009602,-0.025496706,0.00995919,0.04885977,-0.022157194,0.003192872,-0.053378075,-0.014398409,0.055428404,-0.03175459,0.05137402,0.036674194,0.053276703,0.014858838,0.03964334,0.0137711065,-0.005340366,0.07627207,0.005383034,0.0122096585,0.021559099,-0.008385228,-0.0019619917,0.050833996,-0.023071062,0.049466267,0.0457358,0.020420466,-0.027381914,-0.03284445,0.054413345,-0.05828864,-0.042533167,-0.051568378,-0.033832777,-0.05905455,-0.041501924,-0.036396336,0.018120205,0.0008567942,0.005350366,0.042041853,-0.045661848,-0.00093351875,0.009199427,-0.0172033,-0.018557519,-0.025021238,0.02283569,-0.012795254,-0.03937862,-0.05785096,-0.007270569,-0.034613863,0.02584987,-0.016502498,0.021736687,0.021297153,-0.024008524,0.032714833,0.028802296,0.007273736,-0.0075452626,0.014542343,-0.0147474585,0.03289396,-0.010325744,-0.027546799,-0.013276502,0.039487265,-0.047532797,0.063520834,-0.020411523,0.04456686,0.02806307,0.032175127,0.02519764,0.027007325,-0.0059655486,0.00026849328,0.0056062313,0.0047777505,0.028838545,0.027818024,-0.051212788,-0.012483798,0.022375397,-0.013031118,-0.0053825225,-0.0044786036,0.019721631,0.013734091,0.025258433,0.041005436,0.054202992,-0.034154024,0.07479117,0.025277361,-0.026431292,0.044569697,0.0015504914,-3.5119545e-05,0.06283216,0.01368079,-0.0020340467,-0.027420033,0.0055198157,-0.028932972,0.040173117,0.000657687,0.03267358,-0.027044233,0.01308248,0.037889928,0.0020088302,-0.034944057,0.058339577,0.038251635,0.009922072,-0.05353506,-0.0259421,-0.028661076,0.0015871908,-0.004846495,0.026871072,-0.01139441,0.0050014085,0.008015304,0.02585746,-0.021451313,0.05015195,0.017801864,-0.05706097,-0.033715785,-0.013492157,0.04370927,0.031551063,0.028193282,0.033370122,-0.0008019686,-0.0050239735,-0.02340551,-0.033040382,-0.023515105,-0.0035445692,-0.0014944684,0.004548329,-0.046533685,-0.0041266875,-0.051237807,-0.052142393,-0.00876266,0.014837379,0.01655236,-0.008190326,-0.004792987,0.07041293,-0.01097144,-0.026123809,-0.02080316,0.0031170107,0.0063984334,0.020818926,0.005173686,0.0073398333,0.029580826,0.048057467,0.0024477807,0.026123118,0.03474591,-0.0015841647,0.061958842,0.03675648,0.014982785,0.03908783,-0.013452515,0.023494452,-0.012250192,0.028138382,0.0006781288,0.0150724985,-0.031682767,0.01040345,0.00858887,0.030194787,-0.019218232,-0.05834352,-0.03458191,0.035485305,0.024188003,-0.02941608,0.007355899,0.0061520822,-0.014485381,0.0381371,0.012678607,0.040481374,0.029253032
customers,-0.011416689,0.0025451237,0.019961776,-0.040226806,-0.021457816,0.024066597,0.005871335,-0.0012695892,-0.0017631933,-0.0056605767,-0.019771596,-0.03010674,-0.02616743,0.031411406,-0.024455091,0.026165392,0.03629881,-0.06862555,0.00204289,-0.03552375,0.038626604,0.0024253756,-0.025856592,-0.027286539,-0.04306438,-0.023892073,0.027768759,0.010242048,-0.03825581,-0.006414282,0.0052326806,-0.05563401,0.006528218,0.04068015,0.024237208,0.05313129,0.06370248,-0.017769491,-0.016261302,6.569845e-05,-0.032922957,-0.033477824,0.011329598,0.008545424,-0.007923781,0.015420022,0.0028245775,-0.020154083,-0.062518165,-0.020936126,-0.012273211,-0.0054221475,-0.009631911,-0.036865976,0.014547001,0.00045168842,-0.03763397,0.015411674,0.014557352,-0.052736603,-0.016909067,-0.021249589,0.036319647,0.0030523732,0.011747032,-0.04832373,-0.030414537,-0.029311951,-0.041313708,-0.04463327,-0.012954625,-0.045837805,0.008204549,-0.019599598,-0.011056912,0.040486466,0.010086078,0.027462954,0.0074593574,0.023219384,0.027486218,0.005916657,-0.022026615,-0.023730578,-0.042642824,0.0450703,0.036895353,0.06276873,0.040882718,-0.03352258,0.010094047,-0.011245921,-0.00976224,-0.0363089,0.0017773604,0.014955183,-0.0073891617,-0.0182013,0.018834524,0.0031844047,-0.036889315,0.012268924,-0.02972588,-0.040265504,-0.010288202,0.03580269,0.020736184,0.025705626,-0.04569902,0.049484175,0.028941633,0.026559565,0.014433524,0.032322668,-0.051396158,0.0012558579,0.022887096,0.018052164,0.008069607,0.03675497,-0.016858295,0.01890643,0.0031144521,0.0058083218,-0.021794908,-0.021165388,0.036671966,0.027060037,-0.0032623515,-0.053188052,0.025132596,-0.029535897,-0.051472522,-0.044958454,-0.010614938,-0.030693904,0.008908189,-0.052095983,0.03128607,-0.019248826,-0.008740759,-0.008870522,0.004946887,0.031625863,0.018782634,-0.01783145,0.016331803,0.020547433,0.0026954361,0.0041158227,0.009619127,-0.040797725,-0.016649194,-0.013161288,-0.023567429,-0.02050735,0.005399902,0.016179541,0.030294923,0.050408106,0.00885088,-0.009329613,-0.03272111,-0.061931532,-0.039932247,0.033597894,-0.039770585,0.039130386,0.026078984,-0.016017916,0.057530157,-0.026162056,-0.029143512,0.025849227,-0.030438788,-0.011880229,0.05419654,0.031568784,-0.015154484,0.013480296,-0.035754945,0.02076408,-0.053107176,-0.023288634,0.0027562517,-0.022089252,0.033222415,0.049640406,0.0114833955,-0.031269465,0.0056814384,0.0037009525,0.004741407,-0.03513184,0.0144439,0.017654847,0.04144456,-0.0073449006,0.015731623,0.01006245,0.025490971,0.009276505,0.035645187,0.075231396,0.052646235,0.0313012,-0.02140299,0.011938424,0.018305587,0.009328779,0.0039182818,-0.04011499,-0.031780537,-0.020955984,-0.07544724,0.037898175,-0.04064458,-0.007868816,0.0033456318,0.0020308222,0.011288174,-0.02034302,0.023997474,-0.0063599474,0.0034883395,-0.0005367607,0.01679361,-0.051909503,0.012624784,-0.038558222,0.003705126,0.0013603806,0.026449636,-0.042876333,-0.002303428,0.009804183,-0.015838841,0.027087756,0.038938176,0.051276334,-0.017263563,0.030586787,-0.0346177,0.026096746,0.008499425,0.009518026,0.0017912352,0.023984479,0.012677355,0.03471821,-0.0359812,0.009263515,0.014763896,0.017379194,0.034146227,-0.008876029,-0.033596043,-0.004842265,-0.017268488,-0.010425441,-0.0053974246,-0.034268055,-0.004273575,-0.004856102,0.053739917,-0.02461724,0.042610634,-0.03904664,0.034865055,-0.042711522,-0.052505776,0.02352017,-0.009424103,0.049269725,0.012679659,-0.041989774,0.04108814,0.0016280618,0.0068228273,-0.009191118,0.025973558,-0.022078086,0.039063483,-0.01691776,0.0028692586,0.06473127,-0.015468324,-0.020785563,0.013960709,0.014659583,0.022266468,-0.0037406164,-0.027941072,-0.0345646,-0.070573986,0.01309268,0.03279049,0.032420903,0.012517293,0.004089949
roads,0.02208006,0.0021484697,0.004924849,0.038637035,-0.040631723,0.017422445,0.029151237,-0.0043481076,-0.026292566,0.026559751,-0.0010826748,0.016701218,-0.0065320767,0.0197568,-0.027298516,-0.04705596,-0.026199188,-0.035956204,-0.044098474,0.07041783,0.021231705,0.0058656223,-0.0111008035,0.04445731,-0.06734272,-0.00725015,0.051790725,-0.0137869995,0.0136546595,0.025619155,-0.027536038,-0.018804424,-0.035530675,0.00933201,-0.009153134,0.03214523,0.048082422,-0.020000624,-0.0014853699,-0.022155808,-0.05248374,-0.027517742,0.02715961,-0.00044719374,-0.026877323,-0.0022313064,-0.07965675,-0.008412336,-0.002291539,0.008011153,0.0684278,-0.02903369,-0.04447243,-0.005366609,-0.013800694,0.016396806,0.03978346,0.003878047,0.0021533647,-0.062927015,0.012575282,0.020925794,0.003252238,0.00298727,-0.0072085555,0.002337577,0.033247456,-0.007687237,-0.005936526,0.03620421,-0.035753228,-0.06190347,-0.048311546,0.016975805,-0.07715588,-0.0063434504,-0.024982236,0.026420228,0.0072955242,0.005666188,-0.029917208,0.033866767,0.030897275,-0.007155816,-0.041457333,-0.011637086,-0.0039662006,0.06345864,0.013308864,-0.01498573,0.022745593,0.040775348,-0.035293184,0.031505227,-0.005097997,-0.059920225,0.05771654,0.027014658,0.031376008,-0.00589712,-0.031141527,-0.006025674,-0.0030421556,-0.0028113073,-0.0035283272,0.030858047,0.05894172,-0.07999023,-0.0069722882,0.050486285,-0.005954521,0.028021187,-0.0054020085,0.008193516,-0.043259457,0.03586608,0.042657975,-0.0328456,0.015529354,0.006493499,0.017799903,-0.010884501,0.0037049272,0.028101034,0.062219225,0.018491933,-0.028774373,0.05676199,0.007572031,-0.0027186773,-0.016132146,0.0066071213,0.032188177,-0.03969807,-0.03202011,0.022552742,0.048720088,0.010736984,0.029173333,-0.017982565,-0.043052625,-0.0017004575,0.057968717,-0.0002256114,0.00072076224,0.02577087,-0.052220136,0.02908778,-0.017034743,-0.02330754,0.010872452,0.01846825,-0.0266959,-0.03137539,0.0050094915,0.015634732,-0.003680366,0.053757973,-0.008062076,0.030678382,0.0041849315,0.020687003,-0.010105469,-0.041090835,-0.025297258,-0.046352144,-0.03587551,-0.024261236,-0.038930193,-0.009679814,0.06851187,0.055216346,-0.03225513,0.03194194,0.024279606,-0.04730028,0.008860579,0.07451669,-0.041149415,0.025354108,-0.048103753,-0.034289718,0.013630398,-0.08515043,0.037891403,0.014019206,-0.074096024,-0.056923203,-0.082087964,-0.008010712,-0.062451452,0.045336086,-0.008574052,-0.046888303,0.0063510127,0.016523032,-0.022403572,0.0090760095,0.04550734,0.026273472,0.037683614,-0.013446005,0.005227619,0.009663953,0.008334768,-0.038789555,0.001971848,-0.025141694,0.028735464,0.042103145,0.012597864,-0.02245783,-0.0065352786,-0.007035463,0.016866473,0.0459012,0.009481127,-0.015348533,0.022381943,-0.031655602,-0.0024957934,-0.088706784,0.053915527,0.01691114,0.03984964,-0.031534262,-0.01757572,-0.011671469,-0.0096466495,0.0073728575,-0.0318662,-0.032019556,0.0051709823,-0.016723288,-0.0006992661,0.011440412,0.026099052,0.02049853,0.016733104,0.007869105,-0.018993517,0.035083227,-0.0054328525,-0.03417892,-0.0028004867,-0.01917726,0.034611158,-0.0060758856,0.052342206,-0.00042783032,0.020481292,-0.0027366932,0.020851947,0.0072647193,-0.043557484,0.03583343,-0.06386264,-0.007884395,0.010067078,0.024313632,0.035687253,0.05324727,-0.017681804,0.017950024,-0.012299845,0.028436752,0.06574416,0.0036398359,-0.0057610082,-0.05166012,-0.00016048834,0.009109992,-0.005194838,0.06245757,-0.004267717,0.028106952,0.00809259,-0.022912294,0.0073730657,-0.0038520142,-0.011226391,0.013577293,0.041281346,-0.0043580555,0.0045180027,-0.020566707,-0.02733805,-0.041321725,0.030727413,-0.039711874,0.026706414,0.024311794,0.024887018,-0.061243087,0.031424426,-0.032814085,0.005679366,0.005910155,-0.044103444,-0.022607237
call,-0.03318858,0.009705616,-0.036754776,0.035248682,0.0092644645,-0.010894165,-0.02671043,-0.036266405,-0.012884804,-0.039696343,-0.0114766015,0.060942672,-0.049755257,0.033017784,-0.026654031,0.04004969,-0.032632418,0.037213154,0.0058432445,-0.0030541278,-0.010007169,0.05525296,-0.02917634,-0.008227358,-0.025369635,-0.008505371,-0.02392728,-0.018939324,-0.0032833032,0.0028978293,0.0072799423,-0.051451974,0.0094499355,0.026586689,0.04291123,-0.028194029,0.025732968,-0.014569966,-0.008049505,-0.016626084,-0.0013402505,-0.014257829,0.0276141,-0.010998104,0.05782853,-3.9163013e-05,-0.01308993,-0.017181288,-0.029835468,-0.021271136,-0.0024987764,-0.04187488,-0.008807731,0.04217736,-0.022197396,-0.003466981,-0.022309728,0.041618433,0.02093871,-0.029739944,-0.052881025,-0.0023939265,-0.04850222,0.0117622,0.027636256,-0.018834515,0.026534913,-0.011270341,0.032354295,-0.003397962,-0.029559314,-0.02126699,0.049371693,0.037826806,-0.015037437,0.040340874,-0.0130226435,-0.027493576,0.04101621,0.044767734,0.04409723,-0.040964834,0.0029835093,-0.014038133,-0.04082328,-0.022795875,0.012141119,-0.025555132,-0.018836834,-0.011532125,0.027614025,-0.041682202,-0.0070484164,0.008837612,0.013313286,-0.027848292,0.008549261,0.020215336,0.047324546,-0.007413472,0.030890826,-0.003489958,0.0023974634,-0.010012412,0.011593741,-0.028030246,-0.009736279,-0.00084893417,0.017508168,-0.030549722,0.02056727,0.040956467,0.013957135,0.008653848,-0.006216145,-0.012836272,0.030519161,0.03263838,0.02232676,0.014011124,0.01544523,-0.022627523,0.013149806,-0.016245835,-0.029546004,0.026418032,0.0034376287,-0.0071971524,0.030045262,-0.0522745,-0.030806791,-0.004623428,0.010187981,0.0076813144,-0.025596516,0.0051126615,-0.0109632,-0.02379107,-0.013266113,-0.02980519,0.02140612,-0.034967277,0.025048366,0.0015993526,0.0069174357,-0.009661852,0.014376288,0.00020116483,-0.028659306,-0.033165537,-0.0134392865,0.010449942,0.005345947,-0.01615567,0.025772516,-0.030518144,0.037107557,-0.03495545,-0.007942013,-0.017051829,0.01192458,0.012971372,0.00090090965,-0.06293003,-0.015784048,0.013232695,0.014171923,-0.019502532,-0.048838746,0.014475968,-0.0071244384,0.0025490182,-0.024700178,0.002171861,-0.03512419,0.034875125,0.046167925,-0.026175536,-0.011854475,-0.015995095,0.030361993,-0.01436182,-0.029649196,-0.015718758,0.014351639,-0.011422667,-0.010599663,0.011152252,0.03425092,-0.053667277,0.002711838,0.056216553,0.017860215,-0.02829235,0.0143150035,-0.016428879,-0.033827316,-0.034919128,0.032347146,-0.02217915,0.038685977,0.000212571,-0.03599776,0.046383496,-0.017876426,0.04540786,0.006134869,-0.0110575985,-0.03852275,0.014881935,-0.0067568673,0.015900105,0.002575898,0.026498862,0.00026391027,0.002824525,0.003168283,0.045236833,-0.0043373434,-0.023564894,0.0100030415,0.038094524,-0.011749912,0.022148645,-0.012778156,-0.009512466,0.021388846,-0.027067043,-0.002614261,0.032426666,0.022700012,-0.0028662574,0.016928982,-0.028140187,0.001113603,-0.017538566,-0.015598577,0.0056697265,-0.01553071,-0.00508782,-0.0048856256,-0.0024592343,-0.012887093,0.03259829,-0.01217009,0.035066746,0.013642321,0.0044058384,-0.03392356,0.028820703,-0.014403854,0.008805285,0.00670725,0.010461441,0.02111888,0.033892445,-0.013201193,0.035723448,0.003922012,0.01688497,0.033513602,-0.028698655,-0.015071667,0.0035578818,0.02216984,0.013084408,0.019499272,-0.0052945786,-0.00025199127,0.013118655,-0.0022177564,0.024612457,0.03610368,0.01597023,-0.010554304,-0.0060411016,-0.000535882,-0.0076420493,-0.024919095,0.04036807,-0.0074443542,-0.0345519,0.039189488,-0.009861126,0.017789561,0.03522855,-0.00823486,0.0021223014,-0.067741066,0.006678942,0.00987337,0.032872856,-0.005997215,-0.017933285,0.037643548,0.009617654,-0.01658056,0.03061288,0.033579953,0.017668234
crossings,0.01786808,-0.012539246,0.005539952,-0.028041366,-0.015564612,-0.019810537,0.02046982,-0.009181297,-0.03775776,0.026398456,0.03446465,-0.015077437,0.0065634996,-0.01598294,0.015357789,-0.02408315,0.04997031,-0.049914803,-0.0034181948,0.01734418,0.05069401,0.009848125,0.0022768488,-0.004250661,-0.0080782045,-0.02681421,0.03203492,-0.04159628,-0.0030569239,-0.048953187,0.013339052,-0.009212522,-0.02857284,-0.053768657,-0.018077007,-0.00093820697,-0.0029366277,-0.0506984,0.050491914,0.01893757,-0.0019786842,-0.058556657,0.02012746,0.010813283,-0.011071626,-0.010145445,-0.0115730595,0.049300827,-0.01843046,0.002495058,0.06423128,0.04004036,0.010527997,0.017705051,-0.016362537,-0.0016013087,0.00089094415,0.0041677775,-0.023958148,0.0077272854,0.044201598,0.055567604,0.06562799,-0.026490351,0.016736945,0.014988053,0.06548656,-0.054004453,0.0073697325,0.001852954,-0.024661934,0.02229512,-0.026233468,-0.032423757,-0.0410437,-0.009989102,-0.009790714,-0.030424498,-0.0049076476,0.0016392599,0.038301032,0.008026013,-0.034264483,-0.039516907,-0.0018273363,0.03013884,-0.021642385,0.010597936,-0.003977497,0.026024729,-0.0012347363,-0.03488224,0.013038848,-0.012184804,0.02938412,-0.0032703837,0.03808208,0.004032997,0.02540402,0.007574961,0.023123827,-0.0342622,-0.036815204,0.011328021,0.01283793,0.10470383,0.01688138,-0.026241254,-0.005715774,0.018721292,0.0035999399,-0.041318834,-0.05495085,0.05243458,-0.046947226,-0.026503677,0.029040515,-0.018019816,0.013084224,0.048502807,0.05311217,-0.026858315,-0.007319902,0.037645068,-0.047059245,-0.032690153,0.008418979,0.022182913,-0.024609402,0.06744917,-0.0015194595,0.03764745,-0.0035036914,-0.020145155,0.023896297,0.04304823,0.012985063,0.02034248,-0.0018777165,-0.013610604,0.0018224489,-0.009327988,0.04879084,-0.04831841,0.010009993,-0.002235572,-0.0022140539,0.005086873,0.039775845,0.032394867,-0.013511123,-0.01266223,0.032998286,0.0398793,-0.009116408,-0.046578538,-0.011422183,-0.010616861,-0.0011459361,0.020975413,0.01007933,0.011384602,-0.0071346657,0.023763677,-0.010762319,0.0020922106,0.016633427,-0.01156122,0.03749016,0.008071242,0.03402557,0.02124559,-0.043210097,-0.036377415,0.032637883,0.0013826772,-0.00535844,-0.0032167071,-0.018270778,-0.008406205,0.030880295,-0.018196732,0.037416246,-0.035571724,-0.041033596,0.026600726,-0.063302495,0.0086052315,-0.013535081,0.04250064,-0.01127816,-0.032767642,-0.035807565,-0.03937996,0.025071062,0.03870013,-0.031236064,-0.015360372,-0.016406164,0.044979706,-0.04455764,0.0044864677,-0.003827956,0.011876775,-0.0003381941,0.026882395,-0.053591035,-0.01561386,0.030236803,0.0062078405,0.06229132,-0.022054981,-0.023176147,-0.014162752,-0.053750478,-0.033571698,0.032516226,0.034900248,0.033258315,-0.030262344,-0.031370793,0.012506022,-0.02175108,-0.037039455,0.00039974603,0.006004432,0.02430323,-0.016256856,-0.03906373,0.0128819635,0.040815618,-0.004181683,0.04288457,-0.03781151,-0.051698748,-0.017103367,-0.028750332,-0.010504363,0.03731912,-0.025599234,0.06814768,-0.03532956,0.025939278,-0.01085234,-0.001189899,-0.027931957,0.013242074,-0.0030042815,0.0037725265,0.010740882,-0.010441222,0.015738627,0.013311139,0.019823965,0.026229165,0.0017527342,-0.001803736,-0.019992705,0.031535763,-0.0043304064,0.017401377,0.009849072,-0.036923528,0.009470075,0.04992,-0.005760865,0.018583555,-0.030253619,-0.022723392,0.0094846,-0.015643492,-0.010045304,-0.007678791,0.022232477,0.03574541,0.0012988221,-0.013303967,-0.03051357,-0.0274611,-0.006054621,-0.06748073,-0.022905689,0.018088097,0.021948365,3.1089345e-05,0.049355175,-0.02101799,0.039408285,-0.013890537,-0.036998242,0.019466674,-0.026026832,-0.02218658,-0.029895574,0.0077500115,0.011129358,0.052477017,0.03188694,-0.005053278,-0.022875642
case,0.0055070915,0.005150383,0.006644599,0.023870442,-0.0054094316,-0.036119137,-0.009992945,-0.018792074,-0.030854123,-0.027834026,-0.0281614,0.021735491,0.023159461,-0.013532766,-0.01632931,0.042933162,-0.007942426,0.03418847,0.015998421,0.031004084,-0.013374065,-0.038340937,-0.01726014,0.025345212,0.04869699,0.03381866,-0.03857864,0.010464219,-0.02351775,-0.027866993,-0.009593129,0.006806742,-0.028725533,0.0038356744,0.056799166,-0.013375284,0.029346107,-0.04191992,-0.026806751,0.012899352,0.011009161,-0.040231183,-0.01695527,0.017434403,-0.027578263,0.0323806,-0.0026190383,-0.021304714,-0.03315663,0.025548352,-0.010955651,0.032668784,-0.02488116,-0.024688005,-0.009857804,-0.021634497,-0.043463983,-0.020890646,0.010968212,-0.023207972,-0.050386906,-0.066958964,0.014532517,0.009614804,-0.009906373,-0.029635005,-0.019359259,-0.033240657,0.011930122,-0.0249975,-0.018888963,0.009642067,-0.036714174,-0.054723278,0.006946247,-0.02819622,0.004555541,-0.020930227,0.03741591,0.0007553055,0.03581489,-0.052458916,0.020169837,-0.01217402,0.019835932,-0.023151504,0.0023285055,0.009403414,0.01687741,0.0055404548,-0.016678007,0.007304944,0.029186744,0.014381939,-0.019146135,-0.009656496,0.015598855,0.022665877,-0.015623267,0.00086673815,0.028423691,0.02853612,0.023761475,-0.024202386,-0.007883938,-0.03795003,0.017680172,-0.032961912,0.020007538,0.008030384,0.029604279,0.00036307613,-0.007148612,0.052002024,-0.016913718,0.020187952,-0.0011896647,0.0073005455,-0.009762306,-0.00014556762,0.01649029,0.00013345153,0.009916193,0.002157821,-0.006749333,0.038525127,-0.002252832,-0.017230252,0.009964978,-0.010946044,0.027189171,0.00089003023,0.011903343,0.030681523,-0.017158026,0.046073485,0.031149857,-0.029344855,-0.009061277,0.021428717,0.011640235,0.033878837,0.0011255593,-0.006686892,-0.0047318493,-0.035291687,0.037817363,-0.03084913,-0.01125289,-0.0373903,-0.02042914,-0.041647565,-0.022937668,-0.012486275,-0.041910447,0.016244039,0.015989602,-0.044148806,0.03500241,0.011372958,-0.034567364,0.018719712,0.020626929,-0.036186405,0.024534103,0.028803358,-0.032966174,-0.010976756,0.0017143982,-0.015618871,0.0019677877,-0.01397194,0.024543947,0.052427318,-0.019802047,-0.011793269,-0.010770357,0.020200131,-0.022164932,0.01893919,0.0369491,-0.01959032,-0.0029357567,0.026621476,0.055486582,0.002608701,-0.0023494284,0.026888223,-0.019313082,-0.034954537,-0.011968988,-0.017527247,-0.0103102,0.0051561403,-0.03201854,-0.029371096,-0.04022175,-0.017526839,0.027580118,-0.056058347,0.0039912527,0.026966121,-0.024710571,0.003992184,-0.008206314,-0.017423877,0.016783547,0.008482454,0.026223755,0.005461188,0.013723222,0.04531265,-0.017359491,-0.00350097,-0.0020001521,-0.0013940514,0.02338268,0.03251762,0.025002537,0.03446022,-0.007725146,-0.019653615,0.007704996,-0.036322393,-0.017541802,-0.041956585,0.02391628,0.0026791221,0.025196431,-0.011614421,-0.02412257,0.0057238955,0.006545758,0.015938476,0.014553633,0.006936417,-0.029238513,0.041990392,-0.009601266,-0.0014842089,0.023317738,0.0116722705,0.007704831,0.054272935,0.006817604,0.0064063244,-0.013467171,-0.028521104,0.024945663,-0.04225794,0.0031858438,-0.013440246,-0.023834687,0.0066120117,-0.010703058,-0.01703647,-0.01513223,0.012961737,-0.011737626,-0.0057116817,0.0046149916,-0.019686798,0.00040315336,-0.009483296,0.01770078,-0.01234496,-0.023478966,0.0017079953,0.029636392,0.019277835,-0.03643275,0.026403578,-0.020600567,0.02237889,0.036619164,-0.03884994,0.0015111595,-0.025223242,-0.034009356,-0.005516207,0.029820425,-0.02268918,-0.03522271,0.0015392054,0.029424854,0.0353752,0.0001436411,0.026292456,-0.00508738,-0.0014661603,0.02341486,-0.021796457,-0.023542622,-0.044124685,-0.010468575,-0.037542537,-0.024206536,0.039258957,-0.0024051976,0.044212442
release,0.00052128447,-0.023216283,0.024333835,-0.010657757,0.03320459,0.015765155,-0.031210672,0.023852048,0.023637138,0.03420028,-0.023568682,0.047859102,-0.003017111,-0.024006134,0.034290522,-0.019813932,-0.045605812,-0.0017626643,-0.055296853,-0.0436595,-0.05899619,-0.030050324,0.029943086,-0.010784845,-0.0036826252,0.0020620613,-0.03507747,-0.04115376,0.012226443,0.029556608,-0.043251503,-0.017213352,-0.05492109,-0.011483487,0.033994857,0.004219575,-2.1811453e-05,-0.00011708347,-0.03139223,-0.04291514,0.017076261,0.0062291757,0.036070418,-0.029826976,0.01922757,-0.028821256,0.038263384,-0.0027629456,-0.011071384,-0.016741145,0.0016320539,-0.013826412,-0.0023055593,0.03623534,-0.00027168915,-0.021732649,0.031464987,-0.05577223,0.020042969,0.009498039,0.04765,0.032872953,-0.021758685,0.030768529,0.00045898493,-0.0004188863,0.00868749,-0.022905456,0.0018268626,-0.008978737,0.008446375,0.004215765,0.03271036,-0.0030195543,-0.024535106,-0.009891677,0.049951434,-0.030457461,0.028871905,-0.032029748,0.001918454,0.016294388,0.0059276475,0.00029639393,0.010879726,-0.014979844,0.019159567,-0.0076939957,-0.0035153213,0.005513758,0.039669555,-0.0039922292,0.00724418,-0.016638927,0.010749095,0.028929045,0.0015083533,0.046950106,-0.03593362,0.017424135,0.015804311,0.02462945,0.0063309497,0.017311411,0.024407718,-0.030965958,0.0153615,0.010729167,0.008390235,-0.009456059,-0.008794844,-0.036413904,0.033188775,-0.013310261,-0.054513276,0.033600893,-0.015722003,-0.046665493,0.01796841,-0.005452362,0.01872832,0.039645508,-0.01184301,0.009333454,-0.0017220727,0.024043933,0.0058473474,0.052030038,0.01857569,0.020491162,-0.017357154,0.013680314,-0.032465782,-0.004665956,-0.035432626,0.01733289,-0.02967506,0.016036319,-0.00041895427,-0.026233716,-0.029765354,0.008014205,-0.0025615187,0.058631416,0.029379187,-0.021400042,-0.038227957,0.01601818,0.032909676,-0.053861365,-0.051629808,0.01748642,0.012044712,0.0578346,0.022069177,0.03552309,0.0050684,0.013932619,-0.021434143,0.017488081,0.033649288,-0.0029703027,0.0051956084,-0.0045466856,0.059003003,0.012481642,0.018873228,-0.04418395,0.023126183,-0.019636841,-0.05091606,0.0104781985,0.018502649,0.035837762,0.06898987,0.01896416,-0.023327522,0.0641607,0.04057043,0.003273776,0.0397844,-0.011566897,0.036967266,-0.008315449,-0.015823651,-0.007234671,0.024953978,-0.050372705,-0.061694346,0.0697758,0.007890796,-0.022514887,-0.04680355,-0.00662731,0.029171703,0.020129792,0.0020006837,0.045548003,-0.019586809,-0.010240282,0.029538665,0.03464758,0.03353667,-0.0556188,0.034194816,0.021079129,-0.034144726,-0.025077963,-0.011410101,-0.024168111,-0.013847438,-0.013155833,-0.031833,-0.030111648,0.023419157,0.00040520637,0.0017536905,0.015156429,0.005853836,0.0065572546,0.011456976,-0.033163074,0.008762751,-0.04408796,0.030624066,-0.004795203,0.034206685,-0.041865632,-0.0020965654,0.024722025,0.006170643,-0.051121317,-0.004423933,-0.015933616,0.014918403,-0.0048534493,0.008111213,0.0062234327,0.0034629349,-0.01254182,-0.03350629,0.017700186,0.0069604362,0.014596922,-0.038846552,0.02243567,-0.01614845,0.036164034,-0.0063222568,0.038533688,-0.035701193,0.02948434,0.04951478,-0.031368326,-0.029608985,-0.022900011,-0.034068048,-0.028397726,-0.016677447,-0.007988368,0.06455672,0.025781417,0.001324236,-0.026474118,0.02671563,0.038034834,-0.0602569,0.02595809,0.011109556,0.016574828,0.047685374,0.013851722,0.020918814,-0.03689233,0.0022751456,0.018295266,-0.011293343,0.0070482288,-0.008603977,-0.007025831,0.03563927,-0.016148588,-0.0075487928,-0.01693793,-0.0047429674,-0.029622208,-0.06916221,-0.016719328,-0.029723324,0.037667233,0.045901824,0.016788907,-0.053077023,0.0020951554,0.029170025,-0.022895921,-0.010895135,0.001962216,-0.008511527,-0.03011052
pay,-0.05082425,-0.0038233143,-0.007282373,0.021097431,-0.019878967,0.00905612,0.0492384,-0.051179424,-0.024550803,-0.03612079,0.032282677,-0.02411832,0.029017102,0.0012286962,0.002853399,-0.03211097,0.036405347,-0.014087256,-0.013860241,0.016086439,0.003413148,-0.024655763,-0.022690864,-0.040167656,-0.051726032,-0.052746847,-0.027327592,-0.02061331,-0.06717713,-0.058462717,-0.014715467,-0.005527725,-0.010076536,-0.0015620528,0.0136268195,-0.05255071,-0.034159385,-0.045726575,-0.008671965,-0.008998325,-0.047903564,-0.053240754,-0.00047595106,0.029304396,0.01768265,0.048852287,-0.02371754,-0.027917672,-0.023868432,-0.025688995,0.023338899,0.015614461,-0.023895312,0.0034403058,0.022070644,-0.017338382,0.023498844,0.053331845,-0.0005617733,-0.011265991,-0.039286673,0.0025196546,0.024698677,0.008246476,0.023414858,-0.013624158,0.020433271,0.0003534298,0.063611686,-0.03011049,-0.025728159,-0.034017444,0.00057274185,0.0026965176,-0.0516207,-0.029044025,0.0026248102,0.0438965,0.026036413,0.015891457,8.772272e-05,-0.03358248,-0.038035247,-0.016643556,-0.019345129,-0.026448391,-0.02893712,-0.033514068,0.0017385889,-0.0038491832,-0.014925214,0.043419167,-0.004820526,-0.004624481,0.018735439,-0.004747019,-0.007044915,-0.017245218,-0.036372803,0.0016213728,0.024787012,-0.039248887,0.006429351,0.018406553,-0.040323533,-0.024665164,0.02855673,-0.039681844,0.019266805,0.02164518,-0.039114676,-0.007477877,0.043977857,0.025286866,0.009997287,0.015982203,-0.04737002,0.0055975877,-0.020046178,-0.019789025,-0.013255926,-0.023873571,0.024089973,-0.009669139,0.027296899,0.015637161,0.036528263,-0.018514331,-0.0032253517,0.0083381515,0.035757627,-0.012543721,0.01813378,-0.012913873,-0.014078224,0.0034094695,-0.01593495,-0.00688629,-0.012277654,0.012354505,0.015524507,-0.008073346,0.003354331,-0.019489821,0.0219258,-0.0010301261,0.011991554,-0.018681666,0.0096933,-0.049462378,0.0067699538,0.022620777,0.010257683,0.0061749974,0.018842902,0.004370386,-0.032157898,0.007812716,-0.0024288984,-0.032975886,-0.029819977,0.0053007356,-0.007582844,0.04030359,0.03199167,-0.025086207,-0.0021258036,-0.020242576,0.011490986,0.021492798,-0.029465942,0.031743143,0.043590177,0.005594765,0.049257383,0.02934193,-0.009182008,0.019107986,-0.011581061,0.0017300152,0.025808139,0.039483666,-0.032714274,-0.0041479426,0.0073042954,-0.011337805,-0.03232933,-0.04218461,0.007688043,0.048329603,0.0152882915,-0.060438648,-0.03729981,-0.023774883,-0.024037976,-0.039024033,-0.0057819006,0.018722583,0.03572178,-0.010641108,-0.026073234,-0.06696289,-0.008062507,-0.031248584,0.025952347,0.034933563,0.01953401,-0.031394903,0.019495307,0.03205446,-0.0031322297,-0.0074427505,-0.018087117,-0.01417732,0.0142652355,-0.02761924,-0.04216147,0.056793492,0.051545396,-0.0116601875,-0.044907846,-0.031444713,0.0075414954,0.025323637,-0.023751678,-0.010467709,0.02367837,0.010841868,0.012310294,-0.021348653,0.028539281,0.017645279,0.0017281278,0.015948502,-0.013643509,-0.0195972,-0.013458258,0.019080827,-0.0344336,0.029559784,0.037266515,0.0068897265,0.06526701,0.036669858,0.062606886,-0.03312967,-0.032538638,0.02264298,-0.040335946,-0.033782735,-0.012909933,0.035351377,0.020341389,-0.023566922,0.0003709818,0.012243466,-0.06187579,-0.045039676,0.021186143,0.040199455,-0.0046299044,-0.019054132,0.0075561395,0.008756719,-0.023319356,0.02691183,0.010872217,0.0036349453,0.015107306,-0.019713392,-0.038872994,0.045617063,-0.017563915,0.04510464,-0.010905032,0.0021274977,0.010339586,-0.03852769,0.043938458,-0.022619558,0.034480724,-0.008958534,-0.016782457,0.0030313171,-0.013905306,0.042509627,0.04242582,0.018217992,-0.02335897,0.008663038,-0.04813592,-0.019813549,-0.012814138,0.00621363,-0.0030944075,0.014698261,0.025672369,-0.04357648,0.018083485,-0.040860083
reduce,-0.015669828,-0.020905867,-0.009968727,-0.036804732,-0.046286102,-0.029750824,-0.011863497,-0.011159305,-0.0380185,-0.001678216,0.033487845,0.0033277385,0.006424299,-0.0044998433,0.014957011,0.035689745,-0.04691446,-0.013950972,0.005302727,0.0015545206,0.033501387,-0.019073838,-0.025268545,0.0036964186,-0.022765458,0.0036457174,0.0637169,-0.02529252,-0.014478485,0.0016038985,0.035554945,0.006245864,0.038465753,-0.031961184,0.048250325,-0.038705267,0.031858552,-0.020152612,0.021627689,-0.033442654,-0.018024312,-0.014523068,0.030621508,0.019364063,0.0040096054,-0.029995048,-0.028258706,0.012105595,-0.01193539,0.02768498,-0.012666603,0.03254904,0.04089779,0.035904724,-0.031047009,0.029502146,-0.027325988,-0.017230107,0.04751079,0.013832172,-0.03478129,0.053154595,0.0077004754,0.019379871,-0.008219708,-0.065580994,-0.02586509,0.0062406384,0.018987246,0.027463585,0.032318395,-0.012107118,0.017519606,0.024024313,0.011091306,0.018616853,-0.0026203343,-0.028509058,-0.03251847,0.012263985,0.05184297,0.04075415,0.009874788,0.039812867,-0.02928883,0.042921394,-0.028854879,0.0094172945,-0.062092513,-0.038742486,0.03580154,-0.06038396,0.0003656986,-0.04198598,-0.03744625,-0.02308964,0.02707302,-0.0009461776,-0.029328804,-0.014487468,-0.03510417,-0.02121223,-0.042505186,0.016031202,0.030054828,0.005557774,0.0056834863,0.043246802,0.05151187,0.052230496,0.015868576,-0.016167954,-0.006195608,0.0077280453,-0.019409776,-0.013365974,-0.01324888,0.0041484945,0.012296534,0.053904716,-0.035672933,-0.0151894605,0.008640543,0.008096299,-0.025947046,0.034323663,0.00380119,-0.035241205,0.014784794,-0.040749546,-0.037138168,-0.018259004,0.008444409,-0.044879515,-0.062474485,0.043021854,-0.021748971,-0.016024258,0.028720656,-0.025445124,-0.037294257,-0.024592021,0.030302258,0.016194528,0.012460821,-0.012911687,0.048688132,0.010537408,-0.013106677,-0.011067435,-0.018432634,-0.011622542,0.025227629,0.01822851,0.03086448,-0.013248153,0.029308388,0.031134339,0.030597057,0.022442738,0.048091043,-0.00021857217,-0.04900186,-0.0022869671,0.035017613,-0.005339502,0.0032940372,0.0031604571,-0.033718597,-0.03216569,0.0057448014,0.046205666,0.006100441,0.021277891,0.008372733,0.0018994717,0.037581217,0.026643762,0.040861964,0.044204645,0.01269748,0.026998363,0.04018809,-0.015353507,0.024701796,0.012867027,-0.028901905,-0.030436045,-0.021659367,0.042324677,0.014624034,0.016826617,0.020403199,-0.021199532,-0.006529847,-0.014812354,-0.00011662297,-0.026793106,-0.0010668319,-0.0047419644,-0.01862877,0.07075123,-0.008083573,-0.027579758,0.04244478,0.03053579,-0.017990686,-0.006223674,-0.011347588,-0.0065636155,-0.05030406,-0.0063611944,0.045069285,-0.016849078,-0.020709256,-0.026135901,0.001901566,0.04078894,0.06109192,-0.04135857,0.04044018,0.0138966255,0.023234155,-0.050675586,0.0076821023,-0.004601271,0.015045907,-0.0067684893,-0.0041164183,-0.006277092,0.002093524,-0.05377369,-0.007942498,0.04828927,-0.012188667,-0.012062981,-0.00092405657,-0.040369257,-0.026306951,-0.0048972936,-0.0040725903,-0.033344734,0.016009383,0.031339902,-0.014777521,0.028536668,-0.021613186,-0.011927557,-0.0012546504,0.0065071755,-0.017210562,-0.0840044,-0.012148611,0.005662164,-0.0052815075,-0.038274538,0.028828025,0.01229192,0.037024967,-0.00998771,0.014198729,0.005628597,0.013485078,0.0015018567,-0.042022128,0.009804986,-0.04050138,-0.032994036,0.046701662,-0.03714738,0.0059423433,-0.00461818,-0.008732244,0.02282782,0.0020695436,-0.0065069883,0.030505547,0.01232137,0.012794971,0.00962311,-0.03564148,-0.032871053,-0.0044916966,-0.01692927,0.042372603,-0.007889106,-0.007857163,-0.011313973,0.053494006,0.0086588785,-0.0053435387,0.059868746,0.07300902,0.037028413,0.04473228,-0.00834571,-0.00072830124,-0.027122818,0.014096129,0.05055702
clubs,0.028733477,-0.02460905,0.008888181,0.015949663,-0.015259549,-0.0058389865,-0.017969929,-0.044125102,0.039137848,-0.008611165,0.03653628,0.02226011,-0.03082247,-0.0024996207,0.018403089,-0.018715482,-0.042363275,-0.018164622,-0.014974289,-0.024624981,0.0039972947,-0.057381235,0.01029529,0.019141505,-0.034083523,0.010327734,0.02264989,0.010549492,-0.026871245,-0.0398221,0.016949557,-0.0061365543,-0.032512538,-0.0007248322,0.02588375,-0.013241985,0.022384321,-0.018989557,0.017139455,0.0106607545,-0.04669123,0.020565486,0.031150818,0.012559355,0.031126225,-0.015441102,-0.009088755,0.020888854,-0.017431939,-0.014371947,0.03606198,-0.024936758,-0.0022671402,-0.023106446,-0.033946894,-0.0058694123,-0.00022400233,-0.010467957,0.011045661,0.034152865,-0.0055120965,-0.06629062,0.024918403,-0.007198219,0.00985309,-0.042038783,0.008425809,-0.003114751,0.017004928,0.0029338477,-0.0032634935,-0.015561225,-0.014132181,0.039274503,-0.018918827,-0.026116382,-0.0045867558,0.012490609,-0.017793247,-0.010064122,-0.018665295,-0.008251093,0.03532606,0.0075845807,0.009292707,0.036665566,0.017933218,0.03287925,0.018465003,-0.002713068,-0.049407575,0.017403793,-0.032003198,-0.017064279,0.014741984,-0.0074847764,-0.022302808,-0.027209662,-0.015280561,-0.03223642,-0.014681483,-0.057464603,0.003816844,-0.042629335,-0.038123075,0.0039553,-0.01427284,0.030523445,0.028761452,-0.0109572485,0.04571873,-0.021083862,-0.051688295,-0.011243554,-0.020065451,0.019399043,0.00065843767,-0.025989996,-0.022629367,-0.041826233,0.008101446,-0.022260921,-0.005601285,0.023117617,0.02072861,-0.042811114,0.0031672984,-0.03422157,0.011167711,-0.004175553,0.013836809,-0.004623435,-0.01868927,0.00359666,0.00907168,0.011581327,-0.014254078,4.2901578e-05,0.011899374,-0.009706691,0.035347097,0.020418676,0.013246583,-0.029105509,-0.037620027,0.008405656,0.036147512,0.033340793,0.008323,0.03619233,0.03139573,0.0071912683,-0.0064361864,0.036995266,0.007522233,-0.011475087,0.018033525,0.040154707,-0.01906383,-0.010022074,-0.025858833,0.003677653,0.026780372,-0.025417455,-0.033728488,-0.009465819,0.012524645,0.004281032,-0.047012627,0.01565355,-0.03683828,-0.0316212,-0.026767675,0.015151994,0.00799169,-0.04053135,-0.0048760045,-0.048570428,-0.009801616,-0.0026903276,-0.026552178,0.0056934142,-0.01663192,0.0449668,0.0050711194,-0.010252639,-0.018353019,0.007812021,-0.041788317,0.014673161,0.047170002,0.023144614,0.01790494,0.011014046,0.0022902393,0.019787041,-0.009980531,0.021657921,-0.03399389,-0.03867107,0.02170145,0.004368673,-0.014460254,-0.016691763,0.004914066,0.0049546044,-0.0145497015,0.026627954,0.031843975,-0.0044104885,-0.019187763,0.044717286,-0.033657633,0.0029781272,-0.000969288,0.01535651,0.05890075,-0.023395583,0.011263038,-0.023768945,-0.0093661565,-0.03042912,0.017236361,0.012963454,0.015671678,0.029646903,0.04341119,0.0356262,0.036631152,-0.046556063,-0.05065808,-0.016977675,-0.032538783,-0.03488101,0.028719094,0.0039058293,-0.01694711,0.0013301075,-0.007932723,0.017606711,-0.047718957,0.0038336688,-0.045143172,0.0073196036,-0.015520527,0.034389023,0.046812557,-0.0051504015,-0.01282443,0.011459436,-0.014305139,0.0006176251,0.021058196,-0.029046103,-0.003518977,-0.030587303,0.027637444,0.00021409284,-0.027240073,0.0047569233,0.04211449,-0.0047154347,-0.0045445524,-0.007315826,0.0273228,0.008793859,0.027556919,0.010525314,-0.0026652555,0.04247338,-0.029386286,-0.027587488,-0.040369816,-0.013446049,-0.027810756,0.008286844,-0.02972646,0.012907586,0.01958582,0.035364952,0.008705073,-0.032947462,-0.0082702255,0.01727151,-0.036695104,-0.03202648,-0.012718391,-0.049947932,0.04043501,-0.054922346,0.045142744,-0.037776496,-0.0061568883,-0.031045163,0.014098542,0.03569739,-0.02189562,0.024959866,-0.052086543,0.016706597
population,-0.058197107,-0.022366628,0.0421691,0.023485685,0.016647968,0.0030394457,-0.041194208,0.01702669,-0.030539107,0.021578984,-0.020814287,0.0019039052,-0.031723894,-0.0060364148,0.029029086,0.028961288,0.0034837474,0.015700743,0.03667062,0.010062895,-0.0066867787,0.060502533,0.025773652,-0.008858395,-0.023134256,0.0011671048,0.015303886,-0.050253846,-0.0265088,-0.012830142,-0.031021941,-0.03779306,-0.016411731,0.03230903,-0.030461999,-0.0330894,-0.033069514,0.037838876,0.016645348,-0.04033343,-0.038804263,-0.0016035317,-0.034623176,0.0051135602,0.022994997,0.056339025,-0.022184998,-0.0006679411,-0.03523308,-0.05036285,0.025750823,0.041420072,0.008305875,-0.027093278,0.0484156,-0.008209655,0.0082641505,0.018669287,0.061862115,0.020930674,0.032165807,0.022492575,-0.02095137,0.0077613625,0.0105471555,0.04076076,-0.0064521143,0.0151642,0.019230437,-0.02207841,0.042888273,0.03516995,-0.020808376,-0.007242276,0.026080186,0.043836463,-0.00599261,0.042419434,0.020427685,-0.028177463,-0.012563021,0.05211167,-0.0020155294,0.01928957,-0.056909595,-0.022382695,0.0056910953,-0.04512321,0.02086321,0.029024594,0.057875723,0.06300225,0.0074763144,0.011455525,-0.02646521,0.013991263,0.018304411,0.04627379,0.0033064226,-0.0010369701,-0.04225304,0.035077758,-0.038056236,-0.0059517496,0.028809614,0.0067209285,-0.011553142,-0.031654537,0.02131272,0.059053972,0.014922903,0.0035996502,0.022631519,0.0023056713,-0.020709042,0.027379407,0.031058323,0.0042896364,-0.034306437,0.037788384,-0.042761527,-0.02569117,-0.02522022,-0.009724853,-0.031244222,0.03973038,0.018253457,-0.012024366,0.022266787,0.0031780184,-0.020028677,-0.06172706,0.019805126,-0.048297144,0.018895647,-0.03697512,-0.033104945,-0.018018873,0.018336369,-0.016969316,0.065077536,-0.023216184,0.043464262,0.0121570695,0.03404398,0.043719962,-0.018826094,-0.05454628,-0.04690913,0.039243914,-0.05210521,-0.02933992,0.018085584,0.02181075,0.028167116,-0.04020792,0.04623785,-0.01810677,0.021625271,-0.0007632787,0.03647774,-0.02791475,-0.026610265,0.019271512,-0.012311001,-0.0073268805,-0.02177839,0.029526047,-0.027248561,0.014914162,-0.022576315,-0.01687009,0.010656472,0.011369206,0.019812465,0.018646901,0.013386354,0.004167962,-0.002873031,-0.01343707,-0.06925118,-0.006405759,-0.022393366,0.023216655,0.014780672,-0.0029849776,-0.02614565,0.0180523,0.045578178,-0.009506471,0.014001111,0.0055038105,-0.0026111118,0.037378225,0.009944443,0.010098358,0.063952036,-0.0097991545,0.011946078,0.03321725,0.049278185,-0.028180776,0.027182367,0.0052945865,-0.0030993125,-0.0067374003,0.024936467,-0.011502924,0.007202894,0.02478772,-0.0060523525,-0.0017190906,-0.022267696,0.029604727,-0.014345741,0.014062182,-0.0320047,0.0043487037,0.028175762,-0.018714555,-0.017530844,-0.0515423,0.03735636,-0.040529896,-0.030982146,-0.039362535,-0.009436007,-0.054595686,0.000928669,-0.054402024,0.03810715,-0.022376748,0.022292402,-0.0056357593,0.017871149,0.025098708,-0.013453662,0.029578555,-0.017714754,-0.002061787,-0.037296817,-0.025959635,-0.021827629,0.0017902477,-0.014093683,0.04273945,-0.047029637,-0.039528467,0.054710317,0.015941182,0.052903768,-0.019852351,-0.028096372,0.018847063,0.018683588,0.04114667,-0.04694106,-0.013844044,-0.028826717,-0.034665924,0.015370868,0.015381212,-0.008585955,-0.024745706,0.019456834,-0.011018797,0.035220366,-0.037817046,-0.009054593,-0.053997334,0.0058326274,-0.021711366,0.013745747,-0.010506533,-0.018596778,-0.0021494832,-0.0016444983,-0.034783404,0.0077957506,-0.038832024,-0.0019813133,0.0065902174,0.048257053,0.01655228,0.03106155,0.04475334,0.028475938,0.050446637,0.027641537,0.010864045,-0.024820581,-0.009859273,0.020834547,-0.032408714,0.03204739,0.021082895,0.044012506,-0.015757132,0.026298543,0.040608983
civil,0.023339907,0.024380626,-0.0068093147,-0.03341866,0.024171041,-0.05371188,0.025058854,-0.01642863,0.022846915,0.027483666,-0.054853816,0.022733407,0.0011206033,0.01256655,0.010103774,-0.042927273,0.048475485,-0.015723845,0.01574967,0.0068620536,0.038247753,0.016592711,-0.018805142,0.026342131,-0.013998799,-0.006236905,0.06898319,-0.02969315,-0.026787845,-0.05020178,0.033495944,-0.04059126,0.018064134,-0.04978151,-0.033238925,-0.012054252,0.03613542,-0.039082527,-0.030218467,-0.026928851,0.018824786,-0.0363978,-0.015591473,0.026780192,-0.04476124,0.03674235,0.024078842,-0.027190814,-0.026247248,0.031369384,-0.0017631538,-0.007458006,-0.017478328,-0.04921082,0.03093457,-0.0053081405,-0.0368166,-0.020429948,-0.008991587,0.019485405,-0.024409195,0.030869868,-0.027858317,-0.0011384967,-0.002177274,-0.0025167037,-0.008357422,-0.05674677,0.010312122,0.028498383,0.024784254,-0.021842632,-0.06672933,-0.029502328,0.024241963,0.012382422,0.030857988,-0.036653727,0.0009909982,-0.0099308165,-0.038590863,0.01334239,0.027174938,-0.045599684,-0.02230109,0.0021245785,0.026841598,0.05847662,0.032357235,-0.028375428,0.0114530455,0.019350016,-0.027699605,0.012955181,-0.03540115,0.0020812352,0.014525392,0.005647545,-0.016756969,0.019782878,-0.03233905,0.03354836,0.0039384677,-0.0045095715,-0.047947027,-0.008569608,-0.011366484,-0.05460096,-0.016919967,-0.015501974,-0.017225262,-0.04793409,-0.0049418965,0.011236528,0.021201951,-0.01961474,3.594262e-05,0.012200559,0.013008513,0.0069419094,0.013291682,-0.023484599,0.030468263,-0.040083345,0.049396135,-0.02802603,0.0047311764,-0.034930453,-0.015741872,-0.019731637,-0.01996651,-0.01920437,-0.007884753,-0.009623745,0.02307664,0.014565969,0.05241822,-0.0153444335,-0.0034763124,0.03484938,-0.03307562,0.015362036,0.018519858,-0.027100848,-0.00829454,-0.031301554,0.010290819,-0.027044956,0.012280767,0.043951984,0.028370274,0.049919456,-0.042571086,0.022121802,0.03062014,-0.016493894,0.015956333,0.005754476,0.0012776775,0.021322839,-0.035792723,0.016370242,-0.014044413,-0.03992595,0.023018029,0.05383976,0.0018523594,0.04757255,0.017220592,-0.028655821,0.0640039,-0.016040968,-0.049817022,0.018339414,-0.0021210026,-0.008356757,0.011991427,0.076042116,0.012357805,0.004526718,0.052258812,-0.023026247,-0.02331768,-0.03319457,-0.033625666,0.0028362107,-0.056868915,-0.01707862,0.019500077,0.026774103,0.02940581,-0.021526506,-0.01700247,-0.030206567,0.0150146885,-0.012964074,0.019366398,0.0031600993,0.014662186,-0.0137180695,-0.00096256315,-0.031512797,0.034554314,-0.0019781303,0.0009699894,-0.0031934315,0.040937405,0.014721955,-0.030661765,0.03052724,-0.029833654,-0.0047578006,-0.028418234,0.0024211607,0.047220256,-0.019264901,0.04475317,-0.037258886,-0.033479862,0.02900156,-0.004617741,-0.049489755,-0.012735388,-0.04601469,-0.009098039,-0.030153532,-0.04580468,0.017772935,0.020389907,-0.04081746,0.0184978,-0.03492482,0.0067936154,-0.03564625,-0.037982926,0.02959587,-0.00543959,0.010691271,0.04457011,-0.021129502,0.05592392,0.030469222,0.047872957,-0.025682408,0.015985286,0.019936755,0.037860595,-0.029448418,0.02344871,0.0394523,-0.025464382,0.01840017,0.008330758,0.007001976,0.020231057,0.0062357057,-0.024329575,0.041072417,0.023257567,0.06596306,0.0057823877,-0.017790452,-0.026640054,0.015691603,0.06577021,-0.022756943,0.017647801,-0.04957037,0.042089812,0.035630275,-0.031436082,0.022623088,-0.032410763,0.0446511,0.021683156,-0.021590142,-0.021687604,-0.04907875,-0.048398,0.03933772,-0.010338577,-0.0031923633,0.02359754,-0.020133693,0.004211555,0.032171737,-0.03817132,-0.018841466,0.016198551,0.019411936,-0.045082208,0.03229517,-0.029352888,0.011311991,-0.014858203,0.015512012,0.036366053,-0.046867684,-0.019644652,0.01690133
